<?xml version="1.0"?>
<opencv_storage>
<my_svm type_id="opencv-ml-svm">
  <svm_type>C_SVC</svm_type>
  <kernel><type>RBF</type>
    <gamma>1.5680000000000000e+001</gamma></kernel>
  <C>9.3399999999999999e+000</C>
  <term_criteria><epsilon>1.1920928955078125e-007</epsilon>
    <iterations>1000</iterations></term_criteria>
  <var_all>413</var_all>
  <var_count>413</var_count>
  <class_count>7</class_count>
  <class_labels type_id="opencv-matrix">
    <rows>1</rows>
    <cols>7</cols>
    <dt>i</dt>
    <data>
      1 2 3 4 5 6 7</data></class_labels>
  <sv_total>57</sv_total>
  <support_vectors>
    <_>
      22. 4. 2. 2. 3. 95. 2. 13. 6. 5. 7. 26. 3. 5. 3. 7. 14. 5. 6. 1.
      2. 4. 5. 13. 7. 8. 4. 5. 6. 4. 3. 7. 3. 0. 8. 3. 4. 10. 6. 0. 3.
      2. 1. 21. 8. 0. 1. 0. 30. 24. 6. 0. 10. 2. 7. 2. 6. 7. 21. 29. 6.
      4. 2. 8. 126. 4. 5. 3. 2. 13. 6. 7. 3. 9. 19. 17. 4. 0. 1. 1. 7.
      6. 6. 2. 1. 2. 1. 1. 5. 3. 7. 5. 3. 3. 6. 4. 8. 12. 3. 6. 3. 7.
      10. 23. 9. 3. 6. 9. 14. 4. 10. 1. 1. 2. 0. 6. 2. 14. 17. 4. 4. 5.
      2. 69. 0. 2. 6. 2. 2. 1. 1. 4. 5. 1. 2. 8. 7. 13. 9. 1. 4. 4. 1.
      4. 14. 20. 3. 5. 2. 7. 10. 12. 1. 2. 1. 3. 1. 8. 22. 0. 1. 0. 2.
      1. 1. 2. 2. 2. 0. 1. 2. 1. 3. 4. 5. 3. 11. 70. 8. 5. 4. 8. 333. 2.
      3. 8. 3. 0. 1. 16. 6. 3. 0. 2. 15. 6. 4. 9. 3. 3. 18. 7. 6. 12.
      10. 5. 10. 13. 7. 3. 3. 2. 0. 6. 14. 11. 18. 6. 4. 6. 3. 7. 9. 3.
      3. 10. 11. 7. 18. 7. 9. 24. 8. 23. 7. 69. 54. 6. 1. 6. 9. 262. 1.
      0. 8. 3. 2. 0. 7. 7. 6. 1. 4. 15. 20. 5. 11. 4. 1. 20. 22. 24. 30.
      17. 6. 10. 6. 4. 0. 1. 0. 2. 5. 14. 14. 9. 4. 2. 4. 11. 14. 6. 7.
      0. 24. 13. 12. 15. 23. 16. 23. 14. 22. 8. 56. 60. 6. 5. 9. 4. 271.
      4. 1. 3. 2. 0. 0. 6. 4. 2. 1. 5. 12. 5. 13. 11. 3. 0. 12. 5. 3.
      14. 23. 4. 3. 12. 15. 22. 15. 1. 1. 1. 11. 10. 26. 30. 4. 4. 2. 1.
      6. 9. 8. 5. 9. 8. 15. 6. 4. 15. 8. 9. 7. 59. 22. 4. 2. 2. 3. 95.
      2. 13. 6. 5. 7. 26. 3. 5. 3. 7. 14. 5. 6. 1. 2. 4. 5. 13. 7. 8. 4.
      5. 6. 4. 3. 7. 3. 0. 8. 3. 4. 10. 6. 0. 3. 2. 1. 21. 8. 0. 1. 0.
      30. 24. 6. 0. 10. 2. 7. 2. 6. 7. 21.</_>
    <_>
      17. 0. 1. 3. 1. 88. 3. 6. 4. 4. 14. 16. 6. 1. 9. 7. 11. 10. 8. 7.
      6. 5. 7. 5. 3. 10. 11. 6. 3. 5. 3. 2. 1. 0. 1. 1. 0. 8. 5. 1. 1.
      0. 2. 12. 7. 0. 1. 2. 27. 17. 1. 4. 9. 2. 3. 10. 5. 3. 15. 25. 4.
      4. 1. 3. 88. 5. 4. 2. 0. 13. 13. 2. 3. 1. 11. 17. 6. 0. 0. 0. 0.
      0. 9. 4. 4. 1. 1. 1. 2. 3. 1. 2. 1. 6. 2. 3. 8. 9. 8. 3. 7. 3. 13.
      29. 8. 3. 3. 8. 19. 7. 2. 0. 2. 2. 2. 2. 1. 19. 22. 2. 1. 4. 9.
      109. 3. 4. 1. 4. 1. 2. 7. 3. 5. 1. 3. 4. 7. 10. 8. 3. 1. 11. 5. 8.
      14. 18. 4. 0. 1. 3. 10. 6. 2. 1. 1. 5. 1. 16. 9. 1. 2. 4. 3. 4. 5.
      3. 3. 3. 2. 5. 6. 7. 4. 6. 6. 2. 25. 49. 15. 5. 4. 8. 243. 2. 6.
      2. 1. 1. 3. 4. 2. 1. 2. 5. 8. 3. 5. 0. 2. 0. 26. 8. 8. 7. 6. 0. 7.
      23. 18. 14. 2. 1. 0. 9. 21. 34. 54. 26. 6. 7. 17. 21. 29. 17. 11.
      11. 18. 24. 28. 1. 3. 17. 4. 7. 9. 87. 36. 2. 2. 1. 6. 247. 2. 1.
      6. 2. 1. 2. 12. 11. 8. 2. 2. 22. 19. 17. 21. 2. 0. 16. 14. 44. 92.
      30. 2. 6. 7. 4. 2. 2. 1. 3. 4. 9. 4. 6. 6. 1. 4. 17. 7. 4. 2. 5.
      16. 14. 6. 14. 37. 16. 11. 16. 33. 6. 67. 55. 3. 6. 4. 12. 226. 3.
      4. 8. 7. 2. 4. 1. 4. 3. 3. 7. 8. 6. 9. 12. 5. 7. 12. 5. 9. 25. 10.
      4. 10. 4. 3. 3. 7. 3. 3. 11. 7. 6. 8. 9. 4. 8. 0. 0. 6. 7. 6. 4.
      7. 2. 12. 2. 9. 8. 5. 7. 5. 50. 17. 0. 1. 3. 1. 88. 3. 6. 4. 4.
      14. 16. 6. 1. 9. 7. 11. 10. 8. 7. 6. 5. 7. 5. 3. 10. 11. 6. 3. 5.
      3. 2. 1. 0. 1. 1. 0. 8. 5. 1. 1. 0. 2. 12. 7. 0. 1. 2. 27. 17. 1.
      4. 9. 2. 3. 10. 5. 3. 15.</_>
    <_>
      23. 2. 1. 0. 9. 92. 4. 2. 4. 9. 8. 29. 3. 2. 7. 9. 19. 3. 4. 6.
      14. 7. 2. 12. 10. 9. 8. 8. 4. 7. 2. 0. 2. 0. 1. 4. 5. 2. 0. 1. 0.
      0. 2. 6. 2. 0. 0. 1. 49. 13. 0. 1. 11. 3. 3. 9. 6. 2. 20. 32. 6.
      4. 0. 9. 117. 8. 1. 2. 2. 14. 14. 8. 1. 3. 18. 21. 1. 2. 0. 1. 0.
      1. 9. 3. 0. 0. 0. 2. 1. 4. 5. 2. 2. 3. 5. 5. 7. 9. 1. 6. 5. 2. 15.
      43. 8. 8. 1. 5. 16. 5. 5. 1. 0. 8. 0. 3. 2. 28. 28. 5. 3. 2. 3.
      91. 0. 2. 3. 0. 2. 1. 5. 5. 2. 0. 3. 6. 6. 19. 6. 1. 0. 5. 4. 8.
      35. 24. 1. 3. 2. 5. 9. 5. 0. 1. 2. 1. 5. 13. 14. 2. 3. 2. 0. 3. 5.
      4. 3. 5. 1. 5. 5. 7. 5. 7. 8. 3. 16. 71. 12. 7. 0. 6. 333. 1. 4.
      10. 1. 2. 2. 12. 3. 2. 1. 8. 10. 9. 3. 5. 4. 2. 21. 5. 12. 16. 9.
      3. 4. 22. 17. 12. 6. 1. 0. 4. 14. 16. 30. 24. 2. 7. 12. 21. 21.
      11. 10. 19. 8. 19. 26. 11. 6. 23. 6. 5. 11. 73. 76. 13. 7. 0. 6.
      346. 1. 2. 5. 2. 1. 0. 17. 5. 4. 0. 2. 29. 6. 6. 5. 0. 0. 23. 16.
      23. 19. 17. 4. 9. 12. 5. 2. 12. 3. 1. 5. 16. 8. 2. 5. 4. 6. 14.
      11. 6. 5. 5. 16. 21. 9. 10. 23. 15. 27. 13. 25. 6. 84. 62. 11. 7.
      1. 13. 293. 0. 2. 17. 3. 2. 2. 13. 6. 3. 1. 5. 11. 10. 9. 5. 3. 6.
      22. 9. 14. 16. 15. 5. 9. 20. 9. 4. 4. 1. 1. 10. 5. 4. 5. 12. 2. 7.
      6. 1. 5. 9. 9. 7. 9. 11. 10. 11. 5. 20. 15. 10. 9. 78. 23. 2. 1.
      0. 9. 92. 4. 2. 4. 9. 8. 29. 3. 2. 7. 9. 19. 3. 4. 6. 14. 7. 2.
      12. 10. 9. 8. 8. 4. 7. 2. 0. 2. 0. 1. 4. 5. 2. 0. 1. 0. 0. 2. 6.
      2. 0. 0. 1. 49. 13. 0. 1. 11. 3. 3. 9. 6. 2. 20.</_>
    <_>
      23. 7. 3. 0. 8. 101. 0. 0. 5. 5. 9. 25. 8. 5. 3. 10. 17. 4. 7. 8.
      7. 10. 3. 3. 10. 11. 5. 13. 4. 3. 1. 1. 0. 0. 1. 0. 3. 4. 1. 2. 2.
      0. 2. 6. 1. 0. 1. 2. 49. 12. 0. 1. 7. 8. 2. 7. 7. 3. 22. 30. 5. 6.
      1. 3. 109. 5. 3. 0. 3. 14. 17. 6. 3. 3. 23. 21. 5. 3. 0. 0. 1. 1.
      7. 3. 3. 2. 1. 0. 1. 5. 5. 4. 4. 3. 3. 1. 6. 9. 2. 4. 6. 8. 12.
      50. 5. 8. 7. 5. 19. 6. 1. 0. 1. 2. 1. 1. 3. 24. 22. 2. 2. 3. 3.
      112. 3. 3. 5. 1. 0. 1. 6. 7. 3. 0. 1. 10. 7. 15. 7. 0. 1. 3. 2.
      11. 41. 20. 4. 0. 5. 5. 8. 6. 1. 0. 2. 6. 3. 11. 13. 2. 1. 0. 0.
      3. 2. 2. 3. 3. 1. 10. 12. 3. 7. 5. 6. 4. 18. 68. 11. 4. 5. 10.
      319. 5. 3. 3. 1. 0. 3. 9. 3. 3. 0. 4. 9. 6. 1. 4. 3. 2. 26. 10. 7.
      8. 8. 1. 4. 20. 19. 8. 7. 3. 0. 6. 18. 18. 22. 11. 1. 9. 8. 21.
      16. 13. 5. 15. 18. 16. 27. 10. 6. 23. 4. 15. 4. 69. 62. 6. 7. 1.
      6. 323. 3. 3. 5. 1. 0. 1. 15. 5. 9. 3. 5. 22. 8. 9. 1. 0. 3. 20.
      25. 20. 21. 16. 6. 8. 14. 7. 4. 8. 1. 3. 3. 6. 9. 2. 10. 2. 5. 12.
      7. 6. 6. 8. 18. 12. 9. 14. 17. 11. 16. 8. 38. 14. 68. 71. 7. 7. 1.
      11. 285. 4. 3. 5. 6. 2. 3. 7. 7. 6. 4. 9. 13. 10. 10. 4. 6. 5. 15.
      4. 11. 18. 25. 3. 9. 12. 2. 1. 7. 0. 3. 8. 9. 2. 9. 6. 4. 6. 4. 4.
      4. 3. 8. 5. 7. 5. 11. 9. 5. 11. 12. 12. 5. 69. 23. 7. 3. 0. 8.
      101. 0. 0. 5. 5. 9. 25. 8. 5. 3. 10. 17. 4. 7. 8. 7. 10. 3. 3. 10.
      11. 5. 13. 4. 3. 1. 1. 0. 0. 1. 0. 3. 4. 1. 2. 2. 0. 2. 6. 1. 0.
      1. 2. 49. 12. 0. 1. 7. 8. 2. 7. 7. 3. 22.</_>
    <_>
      21. 6. 2. 1. 8. 86. 2. 3. 1. 6. 8. 35. 2. 5. 6. 11. 14. 8. 0. 3.
      6. 5. 4. 5. 2. 11. 4. 4. 1. 3. 2. 0. 0. 0. 0. 1. 5. 4. 2. 1. 2. 1.
      0. 3. 5. 0. 1. 1. 53. 15. 0. 1. 10. 4. 1. 7. 6. 5. 17. 28. 5. 4.
      6. 4. 104. 5. 3. 2. 3. 13. 16. 6. 2. 2. 26. 19. 4. 0. 1. 2. 0. 1.
      4. 4. 5. 3. 3. 0. 3. 5. 6. 3. 3. 2. 4. 1. 7. 13. 4. 5. 3. 3. 8.
      44. 13. 5. 7. 6. 12. 3. 13. 0. 3. 3. 2. 5. 3. 20. 24. 4. 1. 5. 3.
      98. 0. 5. 0. 3. 1. 0. 6. 4. 6. 0. 0. 7. 10. 18. 7. 0. 1. 3. 6. 17.
      26. 30. 1. 2. 4. 7. 9. 1. 1. 0. 3. 5. 4. 7. 19. 3. 0. 0. 1. 10. 3.
      2. 3. 2. 0. 4. 12. 5. 4. 12. 7. 5. 16. 72. 12. 6. 3. 8. 324. 4. 3.
      1. 2. 0. 0. 11. 3. 0. 0. 4. 11. 6. 6. 4. 5. 1. 24. 10. 10. 10. 12.
      2. 4. 29. 16. 10. 4. 1. 2. 5. 13. 23. 30. 18. 3. 9. 12. 26. 29.
      11. 9. 15. 18. 18. 23. 9. 7. 21. 7. 16. 9. 64. 75. 10. 3. 2. 12.
      363. 1. 2. 4. 5. 0. 0. 13. 6. 4. 1. 1. 26. 13. 6. 2. 0. 3. 16. 21.
      28. 15. 13. 1. 4. 13. 7. 3. 8. 3. 1. 11. 11. 9. 2. 10. 5. 2. 8. 8.
      5. 3. 6. 22. 15. 6. 18. 19. 18. 23. 16. 28. 12. 73. 78. 9. 0. 1.
      13. 284. 5. 3. 7. 8. 2. 5. 9. 6. 3. 1. 10. 11. 6. 11. 10. 7. 5.
      28. 10. 8. 12. 13. 5. 6. 9. 4. 2. 1. 2. 2. 17. 5. 4. 6. 6. 2. 6.
      4. 6. 5. 5. 5. 5. 8. 5. 5. 6. 13. 19. 8. 12. 8. 80. 21. 6. 2. 1.
      8. 86. 2. 3. 1. 6. 8. 35. 2. 5. 6. 11. 14. 8. 0. 3. 6. 5. 4. 5. 2.
      11. 4. 4. 1. 3. 2. 0. 0. 0. 0. 1. 5. 4. 2. 1. 2. 1. 0. 3. 5. 0. 1.
      1. 53. 15. 0. 1. 10. 4. 1. 7. 6. 5. 17.</_>
    <_>
      33. 2. 2. 2. 3. 122. 5. 10. 3. 4. 13. 21. 4. 5. 10. 20. 21. 6. 3.
      2. 6. 7. 4. 7. 4. 7. 4. 4. 2. 5. 1. 6. 6. 6. 6. 5. 4. 1. 7. 1. 4.
      4. 1. 19. 19. 2. 1. 5. 22. 23. 0. 9. 1. 4. 2. 3. 1. 2. 23. 33. 4.
      5. 2. 5. 112. 3. 13. 6. 2. 10. 17. 4. 3. 3. 5. 16. 4. 2. 3. 2. 3.
      5. 13. 3. 4. 2. 2. 5. 3. 1. 8. 2. 3. 9. 3. 4. 9. 5. 5. 2. 2. 3.
      16. 10. 7. 11. 5. 15. 20. 3. 10. 1. 4. 3. 1. 5. 3. 20. 26. 3. 5.
      5. 9. 97. 0. 5. 6. 5. 1. 2. 0. 3. 7. 3. 1. 2. 1. 11. 8. 4. 3. 9.
      1. 4. 7. 13. 2. 7. 1. 2. 10. 13. 1. 2. 9. 2. 1. 9. 12. 8. 2. 0. 0.
      2. 3. 1. 2. 3. 3. 0. 1. 1. 4. 1. 2. 2. 21. 83. 13. 3. 5. 9. 356.
      3. 4. 9. 1. 2. 1. 5. 5. 3. 0. 2. 21. 13. 9. 9. 2. 6. 15. 13. 11.
      26. 22. 10. 11. 13. 5. 8. 5. 1. 2. 10. 17. 17. 25. 16. 4. 6. 3.
      10. 12. 9. 10. 2. 12. 8. 21. 8. 9. 23. 12. 15. 14. 75. 60. 5. 3.
      0. 12. 326. 2. 0. 9. 3. 1. 1. 18. 13. 2. 3. 5. 29. 22. 21. 12. 3.
      3. 22. 18. 29. 66. 30. 4. 15. 6. 5. 4. 2. 1. 0. 7. 6. 4. 4. 6. 0.
      6. 7. 3. 0. 2. 2. 14. 10. 2. 8. 31. 15. 17. 26. 28. 16. 75. 61. 8.
      6. 9. 5. 280. 2. 5. 8. 1. 0. 2. 7. 3. 4. 3. 2. 13. 5. 3. 5. 1. 1.
      12. 5. 9. 10. 11. 4. 7. 19. 12. 17. 5. 1. 1. 10. 13. 13. 21. 22.
      5. 9. 3. 4. 3. 9. 8. 4. 14. 10. 19. 1. 3. 13. 6. 14. 4. 59. 33. 2.
      2. 2. 3. 122. 5. 10. 3. 4. 13. 21. 4. 5. 10. 20. 21. 6. 3. 2. 6.
      7. 4. 7. 4. 7. 4. 4. 2. 5. 1. 6. 6. 6. 6. 5. 4. 1. 7. 1. 4. 4. 1.
      19. 19. 2. 1. 5. 22. 23. 0. 9. 1. 4. 2. 3. 1. 2. 23.</_>
    <_>
      27. 7. 3. 8. 8. 113. 4. 8. 3. 5. 16. 11. 4. 2. 8. 17. 16. 5. 3. 3.
      6. 3. 2. 13. 8. 7. 3. 3. 2. 10. 4. 3. 3. 8. 9. 1. 8. 5. 2. 4. 4.
      5. 5. 14. 16. 1. 2. 2. 22. 26. 1. 2. 10. 4. 4. 6. 2. 1. 27. 33. 6.
      5. 5. 7. 112. 5. 7. 4. 3. 11. 11. 4. 3. 4. 8. 14. 3. 1. 3. 1. 1.
      5. 9. 6. 2. 0. 1. 4. 1. 3. 5. 4. 6. 8. 5. 8. 8. 11. 13. 2. 3. 5.
      13. 14. 5. 7. 4. 19. 10. 8. 8. 0. 2. 3. 3. 2. 2. 24. 27. 1. 2. 2.
      7. 92. 1. 2. 4. 2. 0. 1. 4. 1. 10. 4. 0. 0. 4. 12. 8. 2. 2. 3. 1.
      0. 9. 14. 3. 5. 3. 0. 11. 10. 0. 1. 8. 1. 3. 6. 18. 2. 4. 1. 1. 0.
      0. 2. 0. 2. 1. 3. 0. 1. 2. 1. 3. 1. 14. 85. 12. 10. 9. 12. 402. 4.
      5. 13. 3. 1. 1. 9. 6. 1. 1. 3. 19. 9. 5. 7. 0. 5. 23. 5. 14. 19.
      11. 9. 9. 20. 11. 8. 6. 0. 4. 10. 7. 20. 15. 6. 3. 11. 7. 13. 9.
      10. 9. 5. 5. 8. 13. 7. 8. 24. 5. 16. 11. 97. 81. 2. 3. 2. 10. 328.
      0. 0. 10. 5. 0. 1. 15. 11. 5. 2. 6. 17. 25. 15. 12. 3. 2. 18. 23.
      39. 47. 31. 4. 18. 13. 0. 2. 1. 0. 2. 11. 5. 4. 0. 6. 0. 4. 8. 6.
      3. 2. 5. 16. 15. 4. 9. 32. 31. 14. 21. 33. 13. 85. 67. 13. 7. 7.
      8. 304. 2. 5. 9. 1. 1. 2. 6. 4. 3. 0. 5. 11. 9. 6. 5. 5. 1. 10. 7.
      6. 3. 14. 0. 6. 20. 16. 17. 8. 0. 1. 9. 8. 10. 20. 30. 8. 9. 5.
      15. 10. 12. 13. 4. 11. 10. 17. 6. 4. 16. 7. 4. 10. 70. 27. 7. 3.
      8. 8. 113. 4. 8. 3. 5. 16. 11. 4. 2. 8. 17. 16. 5. 3. 3. 6. 3. 2.
      13. 8. 7. 3. 3. 2. 10. 4. 3. 3. 8. 9. 1. 8. 5. 2. 4. 4. 5. 5. 14.
      16. 1. 2. 2. 22. 26. 1. 2. 10. 4. 4. 6. 2. 1. 27.</_>
    <_>
      17. 1. 3. 1. 5. 63. 3. 3. 1. 4. 13. 13. 1. 2. 6. 16. 21. 5. 5. 5.
      7. 10. 3. 14. 4. 7. 12. 4. 6. 1. 1. 0. 2. 2. 1. 6. 1. 7. 3. 1. 1.
      2. 0. 8. 11. 0. 0. 0. 18. 13. 3. 1. 7. 7. 4. 7. 5. 4. 9. 13. 2. 3.
      4. 2. 61. 7. 10. 2. 3. 12. 17. 7. 0. 5. 17. 13. 5. 3. 1. 1. 4. 2.
      4. 5. 5. 1. 0. 2. 0. 1. 4. 3. 1. 5. 8. 2. 2. 10. 3. 3. 4. 2. 13.
      22. 4. 1. 6. 11. 19. 4. 3. 0. 2. 0. 3. 4. 1. 9. 23. 3. 1. 4. 5.
      105. 5. 1. 4. 2. 0. 0. 6. 4. 3. 2. 2. 4. 5. 14. 11. 2. 0. 16. 5.
      10. 16. 14. 2. 5. 2. 1. 5. 1. 1. 1. 8. 2. 3. 3. 4. 1. 3. 3. 2. 3.
      6. 1. 8. 5. 3. 1. 6. 6. 5. 5. 5. 4. 27. 37. 4. 6. 0. 4. 168. 2. 1.
      4. 2. 0. 0. 6. 6. 4. 2. 1. 9. 4. 10. 11. 3. 3. 13. 9. 13. 15. 15.
      2. 3. 5. 3. 1. 2. 1. 0. 5. 8. 8. 5. 7. 0. 3. 6. 2. 1. 2. 3. 2. 8.
      4. 4. 8. 8. 18. 5. 8. 2. 39. 27. 0. 3. 0. 6. 145. 0. 1. 3. 2. 0.
      0. 8. 1. 3. 0. 0. 11. 9. 17. 4. 0. 1. 13. 8. 22. 51. 15. 3. 2. 5.
      2. 2. 2. 0. 0. 2. 4. 6. 10. 8. 1. 0. 7. 1. 4. 2. 1. 10. 6. 5. 4.
      13. 7. 8. 9. 15. 5. 31. 59. 2. 5. 4. 23. 215. 3. 3. 7. 6. 5. 3. 7.
      10. 12. 10. 8. 6. 4. 12. 19. 14. 6. 17. 5. 12. 20. 19. 9. 12. 5.
      1. 3. 5. 3. 3. 16. 1. 4. 2. 8. 8. 12. 1. 1. 1. 3. 5. 1. 5. 2. 3.
      8. 4. 16. 3. 8. 8. 58. 17. 1. 3. 1. 5. 63. 3. 3. 1. 4. 13. 13. 1.
      2. 6. 16. 21. 5. 5. 5. 7. 10. 3. 14. 4. 7. 12. 4. 6. 1. 1. 0. 2.
      2. 1. 6. 1. 7. 3. 1. 1. 2. 0. 8. 11. 0. 0. 0. 18. 13. 3. 1. 7. 7.
      4. 7. 5. 4. 9.</_>
    <_>
      19. 3. 1. 2. 5. 82. 2. 5. 3. 3. 12. 11. 4. 3. 6. 21. 18. 4. 7. 4.
      8. 9. 5. 9. 10. 9. 12. 8. 3. 2. 6. 1. 3. 3. 0. 2. 5. 5. 1. 4. 3.
      2. 0. 7. 14. 0. 0. 3. 13. 14. 2. 2. 7. 6. 0. 4. 5. 2. 16. 13. 4.
      1. 5. 2. 54. 3. 11. 3. 6. 10. 20. 5. 4. 6. 21. 11. 3. 1. 4. 2. 3.
      5. 2. 1. 6. 2. 0. 3. 1. 3. 3. 4. 6. 9. 4. 1. 8. 7. 1. 2. 7. 4. 13.
      15. 5. 2. 4. 10. 17. 3. 1. 1. 4. 1. 2. 0. 1. 11. 18. 0. 4. 2. 5.
      102. 2. 4. 0. 2. 2. 5. 0. 5. 4. 4. 2. 6. 9. 15. 12. 2. 2. 9. 3. 8.
      17. 13. 2. 1. 9. 4. 5. 9. 1. 1. 1. 3. 2. 1. 9. 3. 1. 7. 4. 2. 3.
      1. 4. 6. 6. 6. 2. 3. 6. 8. 6. 4. 22. 59. 7. 2. 6. 6. 282. 0. 2. 0.
      1. 0. 1. 4. 1. 1. 0. 5. 7. 7. 2. 3. 0. 2. 15. 8. 6. 3. 8. 1. 1.
      17. 20. 10. 3. 1. 1. 3. 19. 30. 52. 24. 1. 7. 14. 19. 20. 17. 11.
      6. 14. 18. 26. 5. 5. 16. 6. 9. 6. 71. 41. 8. 2. 0. 4. 235. 1. 0.
      7. 0. 0. 0. 9. 9. 6. 1. 4. 20. 22. 20. 6. 2. 1. 16. 24. 30. 94.
      41. 4. 7. 8. 2. 0. 1. 0. 3. 7. 4. 1. 10. 7. 1. 4. 7. 1. 2. 1. 4.
      12. 10. 6. 6. 24. 24. 12. 21. 23. 10. 66. 52. 2. 0. 2. 11. 216. 4.
      7. 11. 7. 5. 4. 4. 7. 6. 9. 10. 9. 6. 9. 12. 9. 9. 9. 7. 8. 23.
      20. 7. 8. 1. 1. 5. 3. 1. 3. 6. 3. 3. 3. 8. 3. 11. 2. 1. 1. 2. 1.
      1. 1. 4. 2. 11. 4. 6. 10. 10. 10. 50. 19. 3. 1. 2. 5. 82. 2. 5. 3.
      3. 12. 11. 4. 3. 6. 21. 18. 4. 7. 4. 8. 9. 5. 9. 10. 9. 12. 8. 3.
      2. 6. 1. 3. 3. 0. 2. 5. 5. 1. 4. 3. 2. 0. 7. 14. 0. 0. 3. 13. 14.
      2. 2. 7. 6. 0. 4. 5. 2. 16.</_>
    <_>
      29. 1. 2. 0. 7. 96. 1. 2. 4. 5. 12. 28. 3. 3. 6. 11. 21. 4. 2. 7.
      11. 5. 4. 8. 11. 7. 9. 8. 6. 4. 2. 3. 0. 0. 2. 3. 0. 2. 2. 0. 0.
      1. 0. 4. 2. 1. 2. 1. 57. 11. 1. 4. 8. 6. 1. 5. 2. 3. 22. 31. 4. 4.
      2. 3. 108. 4. 3. 5. 5. 17. 12. 4. 1. 4. 22. 19. 3. 3. 0. 0. 3. 0.
      4. 3. 1. 1. 0. 1. 1. 5. 5. 4. 0. 3. 5. 1. 5. 11. 5. 4. 4. 2. 9.
      53. 12. 2. 5. 8. 20. 7. 7. 2. 1. 7. 0. 3. 6. 20. 19. 4. 0. 5. 2.
      113. 3. 0. 4. 0. 0. 0. 4. 2. 1. 0. 4. 6. 9. 17. 6. 0. 1. 8. 3. 9.
      27. 24. 3. 2. 5. 4. 9. 5. 0. 0. 1. 1. 4. 11. 10. 1. 4. 1. 0. 2. 2.
      4. 2. 3. 2. 5. 4. 3. 5. 7. 7. 3. 15. 35. 8. 1. 2. 6. 174. 1. 0. 4.
      2. 0. 0. 11. 6. 5. 5. 1. 8. 5. 4. 15. 4. 2. 11. 7. 13. 9. 14. 6.
      8. 7. 5. 0. 2. 1. 0. 4. 4. 2. 6. 5. 0. 4. 5. 0. 1. 3. 2. 14. 7. 3.
      4. 8. 4. 11. 4. 6. 8. 38. 33. 6. 3. 2. 4. 158. 1. 4. 2. 1. 0. 0.
      6. 2. 1. 0. 0. 12. 7. 7. 0. 0. 0. 14. 12. 17. 14. 5. 0. 3. 11. 3.
      2. 9. 2. 4. 3. 7. 8. 4. 7. 2. 3. 5. 2. 6. 7. 6. 13. 6. 5. 9. 16.
      9. 7. 10. 6. 6. 33. 74. 7. 7. 3. 12. 315. 2. 3. 9. 3. 2. 1. 4. 3.
      4. 2. 6. 19. 10. 15. 8. 2. 4. 16. 6. 6. 19. 18. 7. 11. 9. 4. 1. 4.
      1. 4. 9. 3. 6. 8. 12. 1. 4. 1. 1. 1. 3. 7. 6. 4. 8. 7. 5. 7. 13.
      12. 11. 11. 75. 29. 1. 2. 0. 7. 96. 1. 2. 4. 5. 12. 28. 3. 3. 6.
      11. 21. 4. 2. 7. 11. 5. 4. 8. 11. 7. 9. 8. 6. 4. 2. 3. 0. 0. 2. 3.
      0. 2. 2. 0. 0. 1. 0. 4. 2. 1. 2. 1. 57. 11. 1. 4. 8. 6. 1. 5. 2.
      3. 22.</_>
    <_>
      26. 1. 3. 3. 5. 105. 2. 1. 6. 6. 9. 27. 5. 0. 10. 9. 12. 6. 7. 10.
      5. 9. 5. 8. 8. 15. 3. 11. 7. 2. 1. 2. 0. 0. 1. 2. 2. 4. 3. 1. 0.
      0. 3. 6. 2. 0. 0. 1. 51. 10. 2. 1. 14. 5. 4. 9. 7. 2. 25. 26. 2.
      5. 2. 6. 106. 6. 2. 4. 2. 13. 15. 2. 1. 5. 23. 15. 2. 5. 0. 1. 1.
      3. 6. 7. 5. 3. 1. 1. 0. 8. 8. 4. 0. 2. 3. 0. 8. 12. 7. 12. 3. 4.
      9. 42. 10. 7. 6. 3. 12. 7. 9. 3. 1. 6. 1. 3. 4. 20. 19. 2. 4. 2.
      3. 89. 0. 1. 0. 2. 1. 2. 4. 3. 0. 0. 3. 10. 5. 18. 8. 1. 0. 5. 4.
      5. 29. 26. 0. 0. 3. 8. 8. 9. 1. 0. 2. 4. 1. 10. 10. 2. 0. 1. 1. 3.
      3. 0. 1. 2. 1. 3. 8. 5. 8. 9. 4. 1. 14. 40. 7. 3. 1. 3. 169. 1. 0.
      3. 1. 2. 0. 6. 2. 10. 3. 1. 8. 3. 3. 7. 6. 2. 14. 7. 7. 8. 13. 5.
      4. 7. 5. 2. 3. 0. 0. 4. 7. 6. 5. 9. 1. 1. 4. 11. 4. 3. 3. 9. 12.
      6. 9. 10. 5. 5. 3. 6. 6. 40. 34. 4. 1. 6. 6. 161. 1. 4. 1. 1. 0.
      1. 3. 1. 2. 1. 2. 12. 7. 2. 0. 0. 0. 14. 15. 16. 9. 3. 1. 4. 9. 5.
      6. 5. 3. 1. 2. 7. 6. 5. 8. 4. 3. 7. 9. 6. 3. 5. 12. 6. 5. 2. 9.
      17. 13. 5. 10. 4. 36. 80. 6. 5. 5. 14. 339. 2. 3. 8. 4. 2. 4. 9.
      4. 3. 0. 8. 12. 7. 8. 11. 4. 1. 26. 5. 4. 19. 16. 6. 5. 8. 9. 4.
      5. 0. 2. 8. 8. 4. 7. 6. 7. 7. 6. 6. 6. 3. 14. 3. 8. 5. 15. 2. 9.
      16. 7. 11. 8. 83. 26. 1. 3. 3. 5. 105. 2. 1. 6. 6. 9. 27. 5. 0.
      10. 9. 12. 6. 7. 10. 5. 9. 5. 8. 8. 15. 3. 11. 7. 2. 1. 2. 0. 0.
      1. 2. 2. 4. 3. 1. 0. 0. 3. 6. 2. 0. 0. 1. 51. 10. 2. 1. 14. 5. 4.
      9. 7. 2. 25.</_>
    <_>
      22. 5. 3. 0. 3. 80. 2. 2. 1. 5. 9. 33. 4. 7. 5. 11. 15. 5. 4. 6.
      7. 7. 2. 12. 5. 14. 7. 12. 7. 2. 1. 4. 0. 2. 0. 1. 2. 9. 1. 0. 1.
      0. 1. 15. 1. 2. 0. 1. 40. 20. 2. 2. 14. 6. 4. 8. 8. 6. 14. 29. 8.
      7. 4. 3. 104. 4. 2. 0. 1. 15. 16. 4. 4. 7. 19. 23. 4. 2. 0. 1. 2.
      2. 5. 3. 1. 6. 5. 0. 3. 3. 5. 1. 3. 2. 2. 0. 9. 9. 1. 7. 3. 6. 11.
      51. 12. 3. 10. 3. 18. 5. 3. 1. 4. 2. 0. 2. 3. 21. 19. 3. 4. 5. 1.
      89. 2. 3. 4. 2. 0. 1. 1. 5. 3. 2. 3. 5. 5. 16. 8. 1. 0. 2. 2. 12.
      39. 20. 3. 1. 1. 5. 14. 6. 0. 0. 1. 5. 5. 14. 19. 2. 1. 0. 2. 1.
      2. 1. 1. 1. 1. 5. 6. 2. 5. 10. 4. 4. 12. 79. 9. 5. 4. 5. 347. 2.
      5. 2. 3. 1. 1. 8. 2. 3. 0. 1. 10. 5. 3. 1. 2. 1. 21. 8. 4. 3. 6.
      3. 1. 15. 12. 5. 3. 0. 0. 6. 18. 30. 27. 13. 8. 5. 6. 18. 29. 11.
      5. 13. 10. 20. 19. 4. 8. 21. 1. 15. 8. 77. 63. 10. 2. 0. 7. 313.
      2. 2. 9. 1. 0. 0. 13. 5. 1. 1. 0. 30. 17. 12. 6. 1. 0. 22. 19. 20.
      25. 17. 7. 6. 10. 9. 6. 9. 2. 1. 8. 4. 7. 4. 8. 0. 2. 7. 7. 3. 6.
      5. 22. 16. 5. 10. 20. 21. 16. 22. 33. 12. 66. 66. 13. 14. 3. 14.
      288. 1. 2. 12. 6. 0. 3. 14. 11. 2. 4. 6. 12. 8. 15. 11. 2. 7. 6.
      6. 8. 21. 23. 6. 13. 8. 6. 8. 1. 2. 5. 9. 10. 6. 20. 16. 6. 8. 3.
      2. 6. 9. 14. 3. 13. 5. 14. 6. 10. 11. 14. 11. 10. 64. 22. 5. 3. 0.
      3. 80. 2. 2. 1. 5. 9. 33. 4. 7. 5. 11. 15. 5. 4. 6. 7. 7. 2. 12.
      5. 14. 7. 12. 7. 2. 1. 4. 0. 2. 0. 1. 2. 9. 1. 0. 1. 0. 1. 15. 1.
      2. 0. 1. 40. 20. 2. 2. 14. 6. 4. 8. 8. 6. 14.</_>
    <_>
      23. 8. 2. 1. 6. 80. 2. 6. 3. 5. 4. 50. 3. 5. 2. 5. 11. 4. 5. 7. 4.
      5. 5. 5. 5. 20. 7. 12. 6. 4. 3. 0. 0. 0. 6. 1. 2. 5. 2. 1. 0. 0.
      2. 10. 3. 1. 1. 1. 45. 14. 2. 1. 17. 7. 3. 5. 7. 3. 15. 18. 0. 2.
      2. 5. 52. 6. 1. 2. 2. 7. 2. 5. 0. 5. 51. 11. 2. 4. 6. 5. 3. 2. 8.
      7. 12. 2. 1. 0. 0. 1. 3. 1. 1. 1. 5. 1. 7. 6. 5. 2. 6. 3. 15. 52.
      8. 3. 2. 4. 19. 4. 4. 1. 2. 4. 4. 1. 3. 9. 27. 1. 3. 3. 7. 89. 3.
      6. 0. 0. 1. 1. 4. 6. 3. 2. 2. 4. 9. 19. 6. 4. 1. 8. 3. 7. 19. 32.
      4. 2. 6. 4. 6. 5. 2. 2. 3. 3. 4. 3. 7. 3. 3. 3. 6. 2. 4. 3. 0. 3.
      2. 5. 5. 2. 6. 5. 5. 4. 17. 75. 10. 9. 3. 16. 326. 4. 1. 6. 4. 0.
      1. 7. 1. 0. 0. 10. 21. 10. 6. 10. 2. 5. 24. 9. 9. 15. 10. 4. 10.
      12. 7. 11. 6. 4. 2. 12. 6. 15. 28. 14. 3. 8. 4. 10. 12. 11. 7. 6.
      10. 8. 8. 5. 9. 21. 9. 12. 4. 80. 81. 6. 5. 2. 10. 322. 3. 0. 8.
      2. 1. 1. 11. 13. 7. 0. 3. 13. 19. 15. 9. 1. 6. 14. 9. 19. 34. 23.
      4. 9. 11. 3. 3. 5. 2. 0. 18. 9. 5. 5. 7. 2. 1. 3. 6. 2. 6. 6. 10.
      16. 4. 7. 8. 9. 20. 15. 22. 14. 83. 48. 7. 5. 4. 16. 272. 5. 1. 8.
      3. 3. 1. 7. 4. 12. 4. 5. 8. 9. 13. 13. 6. 7. 14. 10. 9. 21. 25. 7.
      3. 10. 10. 3. 2. 1. 2. 9. 9. 7. 6. 8. 8. 8. 7. 4. 4. 5. 3. 6. 9.
      6. 12. 4. 6. 10. 7. 12. 3. 61. 23. 8. 2. 1. 6. 80. 2. 6. 3. 5. 4.
      50. 3. 5. 2. 5. 11. 4. 5. 7. 4. 5. 5. 5. 5. 20. 7. 12. 6. 4. 3. 0.
      0. 0. 6. 1. 2. 5. 2. 1. 0. 0. 2. 10. 3. 1. 1. 1. 45. 14. 2. 1. 17.
      7. 3. 5. 7. 3. 15.</_>
    <_>
      34. 7. 2. 10. 9. 132. 6. 6. 2. 7. 10. 6. 1. 2. 17. 32. 21. 6. 3.
      3. 3. 12. 7. 5. 5. 5. 2. 2. 2. 7. 3. 3. 5. 2. 2. 0. 5. 4. 10. 1.
      5. 1. 4. 17. 24. 1. 1. 4. 14. 22. 2. 2. 0. 2. 6. 6. 6. 7. 27. 31.
      6. 3. 8. 4. 146. 2. 8. 6. 2. 3. 14. 8. 1. 4. 4. 4. 6. 2. 5. 1. 2.
      5. 18. 3. 2. 1. 5. 3. 3. 4. 0. 7. 4. 6. 3. 4. 6. 6. 7. 10. 8. 4.
      7. 8. 9. 4. 1. 6. 6. 9. 2. 3. 4. 8. 1. 3. 5. 29. 19. 5. 2. 4. 1.
      89. 1. 4. 5. 4. 1. 1. 0. 5. 5. 1. 0. 4. 3. 9. 6. 4. 1. 7. 3. 5.
      11. 16. 0. 8. 7. 4. 10. 7. 1. 3. 3. 4. 5. 10. 13. 2. 3. 0. 2. 3.
      2. 2. 2. 2. 5. 4. 3. 1. 0. 2. 3. 4. 14. 73. 10. 11. 7. 17. 312. 3.
      2. 4. 0. 2. 0. 4. 6. 2. 1. 7. 16. 8. 8. 17. 4. 1. 16. 8. 10. 15.
      17. 2. 4. 11. 7. 8. 8. 0. 1. 19. 8. 17. 23. 13. 4. 6. 4. 11. 14.
      11. 6. 7. 8. 6. 16. 8. 8. 18. 5. 15. 9. 66. 56. 5. 2. 3. 10. 254.
      0. 6. 11. 1. 2. 4. 12. 9. 8. 0. 6. 21. 13. 13. 10. 6. 0. 16. 11.
      37. 66. 26. 13. 12. 11. 4. 6. 6. 5. 1. 8. 7. 4. 9. 8. 2. 0. 5. 4.
      7. 6. 3. 14. 8. 1. 10. 24. 14. 17. 19. 16. 8. 64. 60. 12. 8. 6. 8.
      261. 0. 4. 4. 1. 2. 1. 9. 5. 4. 0. 5. 9. 6. 7. 3. 1. 4. 20. 11. 6.
      14. 10. 7. 3. 14. 6. 15. 11. 2. 0. 7. 9. 15. 26. 24. 5. 8. 6. 7.
      8. 12. 10. 5. 6. 5. 14. 8. 3. 17. 3. 13. 9. 55. 34. 7. 2. 10. 9.
      132. 6. 6. 2. 7. 10. 6. 1. 2. 17. 32. 21. 6. 3. 3. 3. 12. 7. 5. 5.
      5. 2. 2. 2. 7. 3. 3. 5. 2. 2. 0. 5. 4. 10. 1. 5. 1. 4. 17. 24. 1.
      1. 4. 14. 22. 2. 2. 0. 2. 6. 6. 6. 7. 27.</_>
    <_>
      39. 5. 4. 3. 16. 158. 5. 5. 4. 7. 9. 8. 8. 6. 6. 22. 14. 5. 3. 10.
      8. 9. 8. 8. 6. 12. 12. 8. 5. 6. 5. 4. 2. 3. 3. 4. 13. 1. 5. 10. 3.
      3. 3. 18. 8. 1. 2. 2. 21. 20. 4. 4. 8. 3. 4. 6. 5. 6. 35. 31. 5.
      2. 2. 7. 153. 6. 13. 3. 5. 10. 17. 4. 3. 1. 2. 13. 5. 3. 3. 4. 1.
      4. 7. 3. 4. 0. 7. 1. 2. 8. 11. 4. 4. 1. 4. 8. 6. 7. 4. 11. 2. 4.
      3. 5. 4. 9. 1. 2. 6. 5. 4. 2. 4. 5. 5. 3. 2. 29. 17. 2. 1. 2. 3.
      76. 1. 1. 1. 2. 0. 1. 3. 2. 1. 1. 2. 3. 4. 10. 13. 1. 0. 5. 2. 4.
      9. 18. 4. 2. 6. 5. 6. 7. 4. 1. 1. 4. 4. 6. 11. 2. 2. 2. 4. 4. 5.
      0. 0. 2. 1. 4. 3. 1. 3. 3. 2. 2. 13. 80. 10. 10. 1. 15. 393. 3. 2.
      5. 4. 0. 1. 11. 9. 3. 0. 5. 16. 8. 8. 10. 1. 2. 22. 8. 6. 28. 18.
      2. 7. 17. 7. 5. 4. 3. 1. 12. 9. 17. 28. 12. 6. 5. 4. 4. 16. 6. 5.
      3. 7. 10. 16. 7. 7. 23. 7. 12. 7. 96. 59. 5. 2. 0. 10. 295. 3. 0.
      7. 7. 2. 3. 19. 12. 5. 3. 5. 16. 22. 29. 14. 2. 4. 25. 18. 44. 72.
      32. 8. 15. 3. 3. 2. 5. 0. 4. 7. 5. 3. 3. 8. 0. 3. 8. 1. 1. 2. 5.
      21. 6. 2. 7. 35. 23. 21. 21. 24. 9. 74. 64. 11. 6. 6. 7. 309. 3.
      5. 5. 2. 1. 1. 8. 2. 1. 1. 5. 11. 8. 4. 4. 1. 1. 11. 11. 3. 10.
      11. 4. 4. 17. 8. 6. 3. 2. 3. 5. 9. 15. 22. 16. 6. 3. 3. 4. 9. 9.
      14. 3. 7. 3. 17. 6. 4. 9. 6. 12. 5. 68. 39. 5. 4. 3. 16. 158. 5.
      5. 4. 7. 9. 8. 8. 6. 6. 22. 14. 5. 3. 10. 8. 9. 8. 8. 6. 12. 12.
      8. 5. 6. 5. 4. 2. 3. 3. 4. 13. 1. 5. 10. 3. 3. 3. 18. 8. 1. 2. 2.
      21. 20. 4. 4. 8. 3. 4. 6. 5. 6. 35.</_>
    <_>
      36. 3. 4. 2. 22. 122. 5. 6. 8. 8. 7. 4. 5. 3. 12. 19. 12. 1. 7. 5.
      6. 8. 8. 15. 8. 6. 11. 9. 2. 5. 1. 3. 1. 5. 1. 6. 26. 1. 4. 2. 1.
      2. 8. 1. 4. 0. 0. 3. 6. 9. 0. 1. 4. 3. 6. 4. 3. 3. 29. 36. 1. 6.
      1. 9. 173. 4. 6. 5. 5. 4. 27. 3. 2. 4. 5. 13. 9. 3. 6. 3. 5. 4.
      18. 7. 1. 3. 2. 4. 7. 9. 9. 5. 6. 4. 4. 5. 5. 11. 10. 7. 0. 4. 2.
      10. 8. 9. 1. 5. 6. 5. 7. 1. 4. 9. 3. 12. 0. 39. 24. 3. 0. 2. 6.
      80. 2. 4. 6. 0. 0. 2. 3. 3. 5. 0. 2. 6. 8. 18. 10. 0. 1. 3. 2. 5.
      16. 22. 6. 2. 3. 4. 3. 10. 3. 2. 3. 8. 2. 3. 5. 1. 2. 4. 1. 1. 4.
      0. 4. 8. 6. 2. 5. 3. 3. 5. 3. 1. 20. 97. 7. 11. 6. 7. 402. 4. 7.
      9. 2. 1. 1. 6. 3. 4. 0. 3. 9. 11. 3. 4. 2. 0. 19. 11. 13. 31. 14.
      3. 13. 21. 20. 9. 5. 4. 3. 16. 20. 14. 37. 27. 2. 11. 10. 13. 14.
      21. 9. 9. 11. 15. 23. 11. 9. 22. 6. 17. 8. 88. 85. 4. 9. 2. 14.
      369. 2. 4. 5. 5. 1. 0. 3. 6. 7. 2. 3. 22. 13. 13. 16. 2. 5. 33.
      29. 33. 42. 19. 8. 10. 9. 4. 7. 13. 3. 3. 17. 11. 15. 15. 7. 3. 4.
      4. 9. 11. 8. 5. 12. 8. 12. 9. 32. 17. 30. 14. 19. 9. 102. 65. 5.
      4. 2. 13. 245. 2. 1. 9. 4. 4. 3. 6. 5. 8. 3. 3. 7. 6. 10. 7. 6. 3.
      9. 4. 8. 11. 9. 8. 11. 5. 3. 2. 4. 2. 5. 15. 9. 2. 6. 7. 3. 6. 5.
      3. 4. 5. 3. 2. 7. 7. 4. 6. 3. 11. 5. 7. 7. 51. 36. 3. 4. 2. 22.
      122. 5. 6. 8. 8. 7. 4. 5. 3. 12. 19. 12. 1. 7. 5. 6. 8. 8. 15. 8.
      6. 11. 9. 2. 5. 1. 3. 1. 5. 1. 6. 26. 1. 4. 2. 1. 2. 8. 1. 4. 0.
      0. 3. 6. 9. 0. 1. 4. 3. 6. 4. 3. 3. 29.</_>
    <_>
      19. 8. 3. 5. 2. 82. 4. 6. 4. 8. 15. 22. 5. 1. 9. 25. 20. 5. 4. 6.
      6. 5. 5. 0. 9. 11. 16. 10. 2. 4. 3. 4. 0. 5. 4. 2. 4. 7. 3. 0. 6.
      0. 2. 13. 6. 2. 1. 1. 15. 22. 1. 2. 8. 3. 2. 3. 3. 5. 14. 20. 1.
      5. 5. 5. 93. 8. 8. 3. 2. 9. 26. 6. 3. 6. 17. 16. 3. 4. 1. 1. 1. 4.
      4. 6. 4. 2. 2. 3. 1. 3. 0. 1. 1. 10. 4. 3. 6. 3. 2. 1. 4. 5. 18.
      19. 2. 3. 1. 24. 26. 3. 5. 1. 4. 3. 1. 5. 2. 12. 27. 1. 1. 4. 3.
      115. 4. 5. 1. 8. 1. 4. 3. 5. 3. 2. 4. 6. 7. 4. 9. 1. 1. 10. 8. 10.
      9. 9. 1. 4. 5. 5. 5. 8. 1. 2. 4. 5. 5. 2. 10. 2. 5. 3. 2. 1. 3. 2.
      4. 8. 2. 7. 5. 5. 13. 3. 7. 2. 24. 73. 10. 6. 6. 11. 325. 5. 5. 1.
      1. 2. 1. 8. 1. 3. 1. 4. 4. 3. 3. 2. 3. 2. 34. 14. 9. 9. 9. 3. 3.
      21. 8. 19. 9. 2. 6. 15. 16. 30. 102. 24. 2. 3. 4. 11. 25. 14. 5.
      7. 9. 15. 18. 4. 4. 28. 6. 7. 6. 99. 70. 2. 0. 1. 20. 282. 5. 1.
      2. 2. 0. 0. 14. 11. 5. 0. 2. 22. 18. 19. 10. 2. 0. 31. 16. 26.
      101. 33. 4. 2. 8. 2. 4. 6. 3. 1. 20. 12. 5. 4. 7. 3. 5. 4. 3. 6.
      0. 3. 12. 14. 4. 4. 20. 17. 19. 20. 21. 14. 138. 45. 7. 8. 5. 14.
      239. 8. 9. 4. 9. 8. 9. 12. 6. 10. 7. 12. 14. 9. 15. 10. 6. 10. 11.
      4. 20. 44. 24. 6. 9. 4. 1. 6. 8. 7. 6. 9. 4. 3. 3. 6. 3. 9. 4. 3.
      2. 2. 3. 6. 6. 1. 7. 16. 8. 6. 10. 11. 15. 51. 19. 8. 3. 5. 2. 82.
      4. 6. 4. 8. 15. 22. 5. 1. 9. 25. 20. 5. 4. 6. 6. 5. 5. 0. 9. 11.
      16. 10. 2. 4. 3. 4. 0. 5. 4. 2. 4. 7. 3. 0. 6. 0. 2. 13. 6. 2. 1.
      1. 15. 22. 1. 2. 8. 3. 2. 3. 3. 5. 14.</_>
    <_>
      27. 2. 3. 6. 6. 99. 1. 8. 3. 10. 14. 16. 3. 7. 6. 28. 18. 2. 6. 7.
      3. 6. 9. 3. 13. 12. 16. 9. 3. 7. 2. 2. 1. 2. 7. 2. 1. 4. 3. 0. 3.
      4. 4. 11. 12. 4. 0. 2. 13. 22. 2. 3. 9. 3. 4. 5. 8. 3. 17. 32. 2.
      7. 3. 8. 110. 4. 8. 3. 1. 8. 34. 5. 1. 3. 16. 13. 3. 2. 1. 1. 2.
      0. 6. 4. 6. 2. 2. 0. 3. 4. 1. 1. 4. 17. 8. 4. 6. 3. 1. 4. 4. 6.
      16. 9. 5. 4. 4. 22. 27. 3. 4. 1. 4. 2. 1. 4. 3. 22. 17. 1. 2. 4.
      5. 120. 1. 3. 5. 1. 0. 1. 1. 3. 2. 0. 0. 8. 5. 8. 8. 0. 1. 5. 3.
      5. 22. 16. 3. 0. 5. 2. 3. 5. 0. 1. 5. 4. 8. 3. 6. 3. 4. 6. 2. 2.
      2. 2. 6. 4. 3. 4. 3. 3. 3. 4. 4. 4. 23. 56. 12. 6. 8. 17. 297. 5.
      10. 4. 1. 0. 3. 7. 3. 3. 2. 6. 8. 5. 1. 2. 0. 0. 23. 12. 4. 7. 9.
      3. 4. 19. 19. 27. 12. 4. 5. 12. 22. 28. 87. 34. 4. 5. 5. 21. 26.
      25. 13. 6. 18. 18. 28. 6. 9. 26. 5. 7. 7. 94. 48. 6. 4. 2. 8. 299.
      2. 2. 8. 4. 2. 1. 11. 12. 2. 0. 5. 24. 20. 28. 10. 1. 2. 25. 24.
      40. 103. 42. 3. 20. 9. 7. 2. 5. 2. 2. 12. 9. 8. 1. 5. 3. 4. 5. 6.
      1. 3. 5. 12. 15. 3. 5. 37. 16. 12. 22. 31. 20. 90. 46. 6. 5. 2.
      12. 225. 6. 11. 9. 9. 8. 13. 10. 4. 4. 10. 8. 4. 12. 12. 5. 7. 7.
      12. 11. 18. 33. 18. 9. 9. 4. 4. 0. 6. 5. 3. 15. 5. 5. 1. 6. 2. 6.
      0. 2. 2. 2. 5. 8. 6. 3. 7. 22. 6. 6. 9. 14. 5. 52. 27. 2. 3. 6. 6.
      99. 1. 8. 3. 10. 14. 16. 3. 7. 6. 28. 18. 2. 6. 7. 3. 6. 9. 3. 13.
      12. 16. 9. 3. 7. 2. 2. 1. 2. 7. 2. 1. 4. 3. 0. 3. 4. 4. 11. 12. 4.
      0. 2. 13. 22. 2. 3. 9. 3. 4. 5. 8. 3. 17.</_>
    <_>
      28. 1. 1. 3. 2. 99. 1. 3. 3. 6. 5. 27. 4. 6. 7. 17. 18. 6. 5. 6.
      2. 9. 2. 6. 4. 15. 6. 8. 8. 3. 2. 2. 0. 0. 0. 0. 3. 0. 7. 2. 1. 0.
      0. 6. 3. 3. 1. 0. 42. 11. 1. 1. 12. 3. 2. 5. 3. 2. 18. 26. 10. 6.
      3. 2. 110. 4. 2. 1. 2. 15. 21. 5. 2. 5. 18. 15. 5. 1. 0. 0. 2. 0.
      13. 4. 4. 1. 1. 0. 1. 6. 2. 1. 4. 3. 2. 3. 9. 9. 6. 3. 2. 10. 8.
      48. 13. 6. 5. 4. 17. 3. 6. 0. 1. 7. 0. 0. 3. 24. 18. 2. 3. 4. 1.
      92. 2. 1. 3. 2. 0. 0. 7. 3. 2. 1. 2. 7. 8. 14. 6. 1. 0. 1. 6. 19.
      27. 17. 1. 5. 4. 3. 7. 2. 0. 1. 2. 5. 7. 8. 11. 0. 2. 1. 1. 3. 3.
      3. 3. 1. 0. 1. 12. 5. 1. 7. 5. 5. 16. 41. 9. 2. 1. 3. 167. 0. 0.
      4. 1. 0. 1. 11. 3. 7. 1. 2. 5. 4. 7. 11. 7. 3. 16. 6. 9. 11. 7. 4.
      5. 6. 4. 0. 2. 0. 1. 4. 8. 5. 7. 3. 0. 3. 5. 3. 1. 2. 4. 11. 11.
      8. 6. 6. 2. 7. 9. 11. 3. 45. 35. 4. 1. 4. 5. 157. 1. 3. 1. 0. 0.
      0. 3. 7. 2. 0. 4. 13. 10. 4. 0. 0. 0. 13. 7. 20. 21. 8. 2. 0. 3.
      4. 1. 10. 0. 2. 3. 4. 11. 7. 8. 3. 3. 8. 1. 2. 2. 2. 17. 8. 5. 7.
      11. 11. 12. 10. 9. 4. 32. 69. 2. 6. 3. 15. 272. 2. 2. 7. 7. 2. 1.
      4. 6. 4. 4. 6. 12. 6. 6. 11. 10. 6. 24. 8. 7. 17. 19. 5. 9. 9. 1.
      1. 3. 3. 1. 13. 6. 2. 0. 4. 3. 4. 1. 2. 1. 1. 5. 1. 6. 3. 7. 9. 8.
      20. 7. 11. 6. 66. 28. 1. 1. 3. 2. 99. 1. 3. 3. 6. 5. 27. 4. 6. 7.
      17. 18. 6. 5. 6. 2. 9. 2. 6. 4. 15. 6. 8. 8. 3. 2. 2. 0. 0. 0. 0.
      3. 0. 7. 2. 1. 0. 0. 6. 3. 3. 1. 0. 42. 11. 1. 1. 12. 3. 2. 5. 3.
      2. 18.</_>
    <_>
      20. 4. 3. 1. 2. 84. 3. 7. 2. 7. 3. 40. 6. 0. 8. 7. 12. 6. 7. 8. 5.
      4. 5. 6. 3. 24. 20. 12. 9. 9. 3. 2. 0. 1. 4. 0. 3. 4. 7. 0. 1. 0.
      4. 8. 4. 0. 0. 0. 42. 8. 1. 0. 28. 5. 4. 7. 4. 2. 15. 18. 0. 2. 1.
      4. 83. 4. 3. 4. 5. 7. 4. 4. 3. 8. 63. 16. 5. 5. 1. 0. 4. 4. 5. 7.
      7. 1. 2. 2. 4. 1. 1. 2. 0. 3. 2. 2. 6. 5. 3. 3. 5. 4. 6. 58. 7. 1.
      1. 10. 18. 0. 3. 1. 1. 4. 3. 1. 1. 13. 20. 3. 5. 3. 8. 105. 8. 4.
      6. 1. 3. 1. 2. 5. 3. 0. 4. 8. 7. 12. 9. 2. 1. 9. 4. 9. 13. 17. 1.
      1. 1. 1. 1. 2. 1. 3. 4. 1. 6. 0. 2. 2. 3. 3. 2. 2. 1. 2. 4. 4. 0.
      3. 6. 0. 4. 8. 6. 5. 23. 106. 9. 13. 9. 37. 445. 8. 6. 16. 2. 0.
      0. 10. 5. 4. 4. 6. 11. 11. 16. 15. 2. 7. 28. 9. 4. 10. 23. 5. 9.
      13. 15. 19. 19. 9. 7. 24. 11. 18. 40. 25. 8. 16. 2. 7. 19. 16. 9.
      5. 9. 7. 16. 3. 5. 28. 3. 14. 6. 117. 98. 8. 9. 5. 22. 464. 8. 6.
      20. 3. 3. 1. 11. 12. 7. 5. 8. 24. 16. 21. 13. 5. 9. 35. 5. 18. 41.
      23. 3. 14. 12. 10. 3. 3. 0. 5. 20. 6. 4. 10. 10. 5. 18. 2. 4. 4.
      8. 11. 9. 10. 7. 11. 16. 8. 30. 17. 22. 11. 127. 57. 6. 4. 3. 12.
      261. 7. 1. 7. 6. 5. 5. 8. 6. 10. 2. 10. 11. 7. 12. 9. 8. 10. 13.
      4. 7. 28. 20. 7. 11. 3. 5. 7. 7. 0. 2. 4. 2. 5. 4. 14. 1. 8. 4. 5.
      2. 4. 1. 1. 11. 1. 3. 4. 5. 8. 5. 14. 12. 57. 20. 4. 3. 1. 2. 84.
      3. 7. 2. 7. 3. 40. 6. 0. 8. 7. 12. 6. 7. 8. 5. 4. 5. 6. 3. 24. 20.
      12. 9. 9. 3. 2. 0. 1. 4. 0. 3. 4. 7. 0. 1. 0. 4. 8. 4. 0. 0. 0.
      42. 8. 1. 0. 28. 5. 4. 7. 4. 2. 15.</_>
    <_>
      27. 2. 1. 1. 5. 74. 1. 10. 1. 6. 8. 36. 5. 3. 3. 4. 14. 2. 8. 6.
      6. 1. 4. 8. 7. 17. 18. 10. 9. 8. 1. 4. 1. 5. 2. 4. 1. 4. 1. 1. 1.
      0. 0. 8. 2. 0. 0. 0. 48. 16. 1. 1. 17. 6. 2. 8. 9. 1. 13. 19. 2.
      1. 4. 10. 68. 8. 1. 6. 2. 11. 4. 6. 4. 7. 51. 17. 3. 3. 3. 9. 6.
      4. 10. 6. 5. 3. 6. 5. 1. 4. 2. 2. 2. 6. 4. 4. 6. 3. 4. 5. 5. 4.
      18. 40. 5. 9. 1. 17. 27. 5. 0. 2. 5. 2. 1. 0. 2. 14. 21. 5. 3. 4.
      6. 79. 5. 3. 2. 0. 1. 2. 6. 4. 5. 2. 8. 3. 11. 16. 17. 1. 0. 7. 7.
      15. 26. 20. 2. 1. 2. 4. 1. 5. 2. 3. 3. 1. 3. 1. 6. 2. 3. 4. 4. 1.
      2. 3. 2. 4. 1. 4. 7. 7. 0. 9. 7. 3. 20. 83. 14. 15. 12. 21. 418.
      5. 3. 8. 4. 2. 2. 7. 11. 1. 3. 7. 17. 10. 6. 5. 1. 0. 16. 14. 7.
      5. 12. 1. 9. 24. 15. 17. 11. 2. 6. 25. 8. 12. 42. 29. 7. 16. 8.
      15. 11. 14. 8. 7. 10. 12. 20. 2. 2. 20. 5. 16. 8. 87. 94. 4. 10.
      6. 12. 421. 3. 6. 11. 4. 1. 3. 9. 9. 5. 1. 6. 17. 14. 18. 13. 3.
      2. 24. 11. 30. 39. 28. 8. 19. 18. 6. 4. 3. 1. 1. 20. 7. 6. 6. 6.
      3. 14. 4. 2. 3. 8. 5. 4. 6. 8. 10. 16. 7. 34. 15. 23. 11. 96. 48.
      9. 4. 2. 8. 235. 3. 5. 13. 5. 6. 2. 10. 4. 8. 2. 7. 10. 7. 10. 13.
      9. 4. 12. 13. 11. 25. 19. 11. 9. 3. 4. 3. 2. 3. 4. 11. 9. 5. 8. 7.
      1. 6. 3. 8. 1. 4. 3. 8. 9. 3. 2. 16. 5. 7. 8. 10. 4. 54. 27. 2. 1.
      1. 5. 74. 1. 10. 1. 6. 8. 36. 5. 3. 3. 4. 14. 2. 8. 6. 6. 1. 4. 8.
      7. 17. 18. 10. 9. 8. 1. 4. 1. 5. 2. 4. 1. 4. 1. 1. 1. 0. 0. 8. 2.
      0. 0. 0. 48. 16. 1. 1. 17. 6. 2. 8. 9. 1. 13.</_>
    <_>
      22. 4. 2. 1. 6. 97. 4. 5. 6. 6. 6. 31. 8. 2. 11. 9. 12. 4. 7. 9.
      8. 3. 7. 8. 8. 18. 24. 15. 11. 8. 1. 1. 0. 1. 4. 4. 1. 1. 2. 1. 1.
      1. 1. 6. 3. 0. 0. 0. 35. 11. 0. 2. 18. 10. 2. 8. 7. 7. 16. 21. 3.
      1. 5. 6. 83. 6. 3. 6. 3. 9. 1. 4. 6. 10. 61. 16. 4. 3. 0. 4. 5. 4.
      4. 8. 4. 1. 4. 1. 1. 3. 0. 4. 2. 7. 3. 1. 13. 8. 9. 4. 8. 7. 9.
      36. 11. 5. 0. 12. 21. 4. 7. 1. 2. 4. 0. 0. 3. 13. 16. 1. 3. 3. 4.
      75. 1. 6. 2. 1. 2. 2. 3. 2. 3. 2. 3. 6. 7. 19. 14. 0. 1. 4. 3. 9.
      17. 22. 3. 0. 5. 4. 6. 7. 3. 2. 1. 3. 2. 2. 11. 2. 4. 5. 6. 6. 3.
      0. 2. 5. 2. 2. 3. 4. 3. 4. 4. 2. 15. 76. 10. 6. 5. 15. 351. 5. 5.
      8. 1. 1. 1. 12. 5. 0. 1. 7. 13. 8. 5. 5. 2. 0. 26. 13. 6. 13. 19.
      4. 4. 20. 9. 6. 13. 1. 0. 11. 12. 16. 36. 17. 1. 14. 10. 19. 25.
      12. 7. 2. 16. 14. 19. 6. 8. 20. 4. 14. 8. 77. 74. 6. 8. 6. 14.
      368. 3. 5. 11. 3. 1. 0. 14. 10. 3. 2. 4. 22. 11. 21. 11. 5. 0. 25.
      12. 18. 29. 34. 7. 8. 16. 2. 6. 2. 1. 2. 29. 4. 1. 4. 10. 5. 4. 4.
      4. 0. 4. 3. 6. 9. 2. 10. 13. 13. 22. 12. 22. 9. 90. 61. 7. 6. 3.
      8. 298. 6. 3. 12. 4. 5. 5. 9. 2. 6. 4. 12. 12. 7. 9. 16. 4. 3. 13.
      11. 13. 24. 13. 4. 12. 7. 7. 1. 1. 3. 2. 17. 4. 6. 5. 10. 3. 6. 4.
      4. 4. 3. 3. 5. 6. 4. 10. 15. 4. 9. 13. 18. 11. 59. 22. 4. 2. 1. 6.
      97. 4. 5. 6. 6. 6. 31. 8. 2. 11. 9. 12. 4. 7. 9. 8. 3. 7. 8. 8.
      18. 24. 15. 11. 8. 1. 1. 0. 1. 4. 4. 1. 1. 2. 1. 1. 1. 1. 6. 3. 0.
      0. 0. 35. 11. 0. 2. 18. 10. 2. 8. 7. 7. 16.</_>
    <_>
      33. 5. 6. 6. 11. 142. 6. 11. 4. 5. 7. 7. 3. 6. 3. 8. 8. 10. 4. 11.
      9. 4. 5. 9. 10. 18. 7. 11. 7. 9. 6. 6. 3. 6. 5. 5. 9. 3. 2. 3. 7.
      3. 7. 5. 4. 1. 0. 5. 21. 13. 0. 1. 14. 7. 6. 8. 7. 5. 29. 48. 9.
      5. 2. 12. 185. 2. 7. 8. 1. 6. 6. 3. 1. 2. 7. 5. 3. 1. 2. 1. 2. 2.
      10. 5. 5. 5. 6. 2. 5. 6. 7. 8. 5. 2. 5. 6. 6. 9. 7. 8. 1. 12. 8.
      12. 9. 9. 5. 5. 15. 6. 11. 4. 3. 4. 1. 5. 2. 37. 15. 5. 2. 2. 2.
      87. 1. 2. 4. 2. 1. 0. 5. 6. 6. 3. 4. 6. 3. 9. 5. 2. 1. 5. 4. 4.
      17. 15. 1. 2. 5. 4. 1. 5. 0. 1. 6. 5. 6. 3. 6. 1. 1. 0. 0. 3. 3.
      2. 1. 3. 1. 3. 2. 1. 1. 3. 7. 6. 11. 85. 7. 10. 11. 18. 381. 4. 3.
      4. 2. 0. 1. 5. 3. 6. 0. 3. 13. 4. 8. 8. 4. 4. 24. 7. 8. 23. 13. 4.
      6. 27. 8. 13. 11. 2. 5. 15. 9. 20. 34. 25. 8. 8. 8. 9. 19. 12. 7.
      6. 12. 9. 22. 10. 9. 23. 5. 11. 6. 88. 79. 4. 1. 3. 20. 316. 4. 2.
      9. 3. 1. 3. 13. 10. 7. 1. 5. 17. 19. 21. 10. 5. 8. 21. 13. 41. 67.
      30. 6. 18. 2. 3. 4. 10. 1. 3. 9. 5. 9. 4. 7. 2. 6. 7. 4. 11. 8.
      10. 10. 14. 7. 8. 39. 10. 25. 14. 18. 13. 90. 59. 7. 5. 2. 10.
      256. 5. 4. 5. 4. 4. 3. 4. 5. 10. 5. 8. 12. 9. 6. 5. 2. 6. 14. 5.
      11. 9. 9. 6. 8. 15. 8. 3. 3. 2. 4. 8. 4. 5. 11. 12. 2. 8. 13. 3.
      3. 5. 4. 9. 14. 7. 15. 8. 4. 11. 6. 14. 10. 47. 33. 5. 6. 6. 11.
      142. 6. 11. 4. 5. 7. 7. 3. 6. 3. 8. 8. 10. 4. 11. 9. 4. 5. 9. 10.
      18. 7. 11. 7. 9. 6. 6. 3. 6. 5. 5. 9. 3. 2. 3. 7. 3. 7. 5. 4. 1.
      0. 5. 21. 13. 0. 1. 14. 7. 6. 8. 7. 5. 29.</_>
    <_>
      38. 6. 2. 0. 8. 164. 9. 8. 10. 6. 6. 11. 4. 4. 1. 7. 15. 7. 7. 8.
      6. 1. 6. 10. 11. 14. 9. 10. 4. 8. 6. 3. 3. 3. 8. 8. 4. 7. 4. 4. 5.
      4. 3. 8. 5. 2. 0. 4. 26. 10. 1. 4. 15. 8. 6. 5. 8. 2. 34. 33. 6.
      6. 1. 10. 162. 4. 4. 5. 3. 8. 5. 3. 5. 4. 3. 5. 8. 3. 3. 8. 3. 5.
      15. 3. 1. 2. 2. 5. 6. 7. 10. 3. 3. 3. 5. 3. 5. 8. 8. 12. 3. 5. 8.
      19. 7. 6. 4. 1. 12. 10. 7. 1. 1. 7. 4. 3. 3. 30. 23. 4. 4. 6. 4.
      93. 0. 3. 5. 0. 3. 0. 3. 4. 4. 2. 3. 1. 1. 7. 6. 1. 0. 4. 1. 7.
      12. 10. 8. 3. 6. 2. 8. 4. 1. 0. 3. 2. 4. 6. 15. 1. 8. 3. 3. 2. 3.
      3. 5. 1. 4. 4. 3. 2. 2. 1. 4. 1. 13. 96. 14. 11. 7. 6. 415. 3. 4.
      15. 4. 2. 3. 13. 9. 4. 5. 8. 17. 9. 6. 15. 3. 4. 22. 9. 5. 13. 13.
      11. 17. 13. 12. 6. 6. 6. 2. 20. 6. 16. 36. 19. 6. 11. 5. 9. 15.
      11. 14. 9. 13. 10. 19. 7. 7. 12. 7. 14. 8. 96. 75. 8. 9. 4. 12.
      351. 9. 2. 9. 2. 1. 3. 13. 8. 7. 13. 7. 17. 16. 11. 10. 5. 3. 20.
      24. 24. 66. 23. 14. 13. 3. 9. 2. 9. 1. 5. 12. 10. 12. 10. 9. 3. 7.
      5. 7. 7. 5. 12. 18. 6. 4. 5. 35. 19. 19. 16. 34. 16. 99. 35. 7. 6.
      4. 17. 171. 4. 6. 5. 1. 0. 1. 3. 6. 1. 2. 6. 8. 8. 9. 2. 0. 1. 12.
      11. 18. 15. 14. 3. 6. 5. 6. 2. 8. 5. 6. 8. 10. 9. 5. 7. 1. 7. 3.
      6. 2. 5. 7. 14. 8. 5. 5. 25. 5. 7. 6. 7. 7. 35. 38. 6. 2. 0. 8.
      164. 9. 8. 10. 6. 6. 11. 4. 4. 1. 7. 15. 7. 7. 8. 6. 1. 6. 10. 11.
      14. 9. 10. 4. 8. 6. 3. 3. 3. 8. 8. 4. 7. 4. 4. 5. 4. 3. 8. 5. 2.
      0. 4. 26. 10. 1. 4. 15. 8. 6. 5. 8. 2. 34.</_>
    <_>
      38. 4. 6. 2. 7. 193. 6. 9. 7. 5. 8. 3. 10. 5. 6. 5. 10. 8. 5. 6.
      6. 4. 4. 8. 10. 12. 12. 7. 6. 9. 4. 4. 2. 7. 3. 5. 2. 4. 3. 2. 2.
      1. 7. 10. 2. 0. 1. 1. 26. 17. 4. 4. 16. 8. 4. 8. 9. 5. 43. 42. 8.
      5. 2. 6. 161. 6. 3. 6. 2. 5. 6. 4. 4. 8. 11. 8. 10. 7. 4. 3. 3. 3.
      16. 5. 4. 3. 6. 5. 6. 4. 6. 8. 3. 3. 3. 8. 8. 6. 7. 8. 8. 8. 6.
      12. 8. 10. 5. 5. 10. 12. 11. 5. 2. 9. 3. 6. 2. 28. 16. 8. 5. 4. 6.
      95. 2. 5. 6. 0. 0. 1. 5. 5. 7. 1. 1. 5. 7. 2. 1. 3. 2. 12. 2. 2.
      4. 8. 2. 2. 2. 2. 3. 10. 5. 1. 2. 3. 4. 3. 10. 3. 6. 1. 2. 3. 2.
      6. 1. 6. 3. 5. 4. 2. 3. 2. 6. 4. 13. 83. 10. 14. 7. 15. 334. 5. 5.
      10. 5. 2. 3. 8. 6. 7. 3. 8. 13. 7. 20. 16. 11. 5. 21. 10. 8. 17.
      32. 3. 13. 14. 11. 8. 5. 5. 2. 18. 11. 36. 27. 14. 2. 9. 5. 21.
      22. 13. 8. 4. 10. 16. 17. 7. 4. 19. 8. 17. 8. 68. 60. 13. 7. 4. 9.
      287. 5. 10. 10. 5. 1. 3. 14. 7. 8. 16. 6. 15. 23. 14. 13. 5. 5.
      17. 21. 37. 75. 22. 8. 14. 6. 3. 8. 15. 6. 3. 6. 5. 9. 8. 16. 4.
      8. 4. 6. 3. 3. 6. 23. 9. 5. 7. 38. 16. 15. 19. 22. 17. 86. 52. 7.
      7. 2. 5. 205. 6. 7. 3. 3. 3. 3. 2. 4. 1. 1. 7. 6. 4. 7. 3. 2. 2.
      13. 14. 19. 16. 12. 3. 9. 8. 5. 2. 5. 5. 3. 8. 6. 8. 4. 7. 3. 1.
      1. 4. 6. 2. 4. 11. 6. 5. 6. 14. 5. 10. 6. 11. 4. 39. 38. 4. 6. 2.
      7. 193. 6. 9. 7. 5. 8. 3. 10. 5. 6. 5. 10. 8. 5. 6. 6. 4. 4. 8.
      10. 12. 12. 7. 6. 9. 4. 4. 2. 7. 3. 5. 2. 4. 3. 2. 2. 1. 7. 10. 2.
      0. 1. 1. 26. 17. 4. 4. 16. 8. 4. 8. 9. 5. 43.</_>
    <_>
      26. 5. 9. 5. 8. 133. 6. 5. 6. 6. 5. 8. 6. 3. 3. 10. 10. 8. 9. 7.
      4. 2. 7. 6. 10. 16. 9. 11. 6. 6. 9. 2. 4. 6. 6. 6. 11. 3. 2. 4. 5.
      3. 3. 10. 4. 0. 0. 3. 38. 8. 2. 2. 7. 7. 3. 7. 2. 5. 35. 36. 8. 2.
      2. 8. 184. 7. 3. 4. 3. 4. 10. 5. 1. 5. 1. 5. 8. 3. 1. 5. 2. 3. 10.
      1. 2. 1. 3. 1. 5. 9. 6. 7. 2. 2. 5. 5. 8. 6. 7. 6. 3. 9. 7. 15. 8.
      3. 2. 4. 9. 9. 12. 0. 2. 8. 1. 6. 0. 35. 25. 3. 1. 2. 4. 90. 2. 2.
      3. 4. 2. 3. 3. 4. 8. 3. 4. 1. 7. 12. 14. 1. 1. 6. 0. 0. 5. 17. 5.
      2. 3. 3. 7. 7. 1. 1. 3. 2. 4. 5. 8. 2. 2. 1. 1. 1. 4. 2. 0. 1. 4.
      1. 1. 3. 6. 7. 2. 1. 19. 61. 12. 9. 10. 6. 290. 7. 12. 10. 10. 11.
      31. 8. 3. 3. 32. 16. 11. 6. 3. 5. 5. 5. 22. 7. 4. 12. 12. 4. 10.
      13. 14. 12. 7. 3. 8. 7. 15. 22. 29. 12. 12. 7. 9. 14. 23. 13. 13.
      4. 8. 12. 16. 8. 8. 19. 5. 14. 6. 74. 58. 10. 6. 6. 8. 275. 6. 8.
      7. 7. 3. 1. 9. 5. 2. 25. 7. 21. 21. 8. 13. 3. 1. 23. 12. 24. 41.
      16. 4. 13. 5. 13. 14. 18. 5. 1. 7. 5. 8. 46. 22. 5. 12. 6. 2. 4.
      10. 7. 8. 9. 3. 7. 23. 11. 19. 20. 25. 10. 76. 57. 8. 5. 1. 6.
      242. 5. 4. 3. 4. 5. 1. 3. 1. 8. 6. 11. 9. 14. 7. 8. 3. 2. 16. 9.
      7. 16. 14. 5. 4. 11. 3. 7. 7. 3. 1. 6. 14. 15. 7. 7. 3. 2. 5. 7.
      3. 2. 9. 13. 6. 5. 17. 7. 4. 11. 7. 5. 3. 61. 26. 5. 9. 5. 8. 133.
      6. 5. 6. 6. 5. 8. 6. 3. 3. 10. 10. 8. 9. 7. 4. 2. 7. 6. 10. 16. 9.
      11. 6. 6. 9. 2. 4. 6. 6. 6. 11. 3. 2. 4. 5. 3. 3. 10. 4. 0. 0. 3.
      38. 8. 2. 2. 7. 7. 3. 7. 2. 5. 35.</_>
    <_>
      20. 3. 5. 1. 2. 84. 1. 4. 3. 7. 9. 32. 2. 4. 5. 7. 20. 7. 4. 8. 5.
      3. 6. 4. 6. 13. 14. 10. 4. 4. 4. 5. 4. 1. 2. 4. 1. 4. 1. 2. 3. 2.
      2. 6. 2. 0. 1. 3. 33. 18. 1. 0. 15. 5. 2. 2. 1. 6. 14. 24. 3. 5.
      2. 13. 98. 9. 7. 3. 1. 11. 10. 8. 2. 2. 14. 14. 2. 1. 0. 1. 2. 3.
      8. 5. 4. 2. 2. 1. 2. 2. 1. 3. 4. 9. 8. 6. 7. 7. 5. 5. 2. 6. 11.
      24. 4. 2. 4. 8. 21. 5. 4. 0. 2. 8. 0. 2. 2. 20. 26. 4. 4. 2. 5.
      130. 2. 3. 7. 6. 1. 0. 1. 1. 3. 1. 4. 9. 13. 14. 5. 1. 0. 15. 4.
      2. 16. 18. 0. 5. 6. 3. 4. 5. 1. 2. 7. 6. 5. 4. 10. 3. 3. 1. 1. 4.
      5. 2. 2. 5. 3. 3. 1. 5. 7. 6. 7. 3. 25. 77. 12. 7. 9. 24. 362. 1.
      8. 6. 10. 9. 4. 14. 6. 16. 9. 8. 11. 3. 12. 17. 10. 15. 25. 3. 3.
      3. 15. 10. 10. 10. 17. 13. 7. 7. 7. 14. 19. 53. 85. 27. 9. 15. 6.
      13. 39. 18. 11. 6. 9. 19. 21. 3. 4. 17. 10. 8. 11. 123. 75. 5. 6.
      7. 16. 379. 7. 12. 12. 10. 0. 9. 8. 9. 15. 6. 7. 12. 14. 24. 27.
      5. 6. 24. 14. 38. 117. 35. 8. 17. 5. 2. 5. 29. 8. 6. 22. 5. 1. 1.
      10. 6. 5. 3. 2. 1. 4. 12. 14. 8. 6. 6. 29. 15. 11. 16. 20. 14.
      130. 41. 11. 3. 7. 4. 189. 7. 5. 7. 5. 6. 5. 6. 3. 6. 6. 8. 10. 4.
      8. 8. 6. 6. 23. 10. 22. 19. 14. 5. 5. 7. 3. 3. 21. 8. 3. 11. 13.
      4. 7. 4. 2. 0. 9. 4. 2. 3. 2. 21. 11. 7. 10. 29. 15. 15. 7. 13. 3.
      39. 20. 3. 5. 1. 2. 84. 1. 4. 3. 7. 9. 32. 2. 4. 5. 7. 20. 7. 4.
      8. 5. 3. 6. 4. 6. 13. 14. 10. 4. 4. 4. 5. 4. 1. 2. 4. 1. 4. 1. 2.
      3. 2. 2. 6. 2. 0. 1. 3. 33. 18. 1. 0. 15. 5. 2. 2. 1. 6. 14.</_>
    <_>
      24. 2. 3. 4. 8. 96. 5. 2. 5. 5. 13. 19. 2. 5. 2. 4. 15. 7. 5. 11.
      4. 3. 11. 8. 10. 16. 13. 18. 3. 6. 2. 2. 2. 2. 4. 5. 3. 4. 6. 3.
      3. 1. 3. 6. 3. 1. 0. 3. 30. 11. 4. 3. 16. 9. 1. 4. 6. 5. 13. 27.
      4. 5. 3. 8. 102. 5. 4. 3. 0. 12. 15. 8. 3. 3. 13. 20. 6. 2. 0. 1.
      0. 0. 5. 6. 5. 0. 1. 1. 2. 2. 2. 4. 5. 3. 8. 4. 6. 10. 2. 5. 4. 3.
      7. 23. 9. 7. 3. 9. 19. 4. 4. 1. 7. 1. 1. 2. 0. 22. 32. 6. 4. 0.
      11. 136. 0. 3. 3. 1. 0. 2. 3. 5. 3. 2. 3. 4. 7. 9. 12. 2. 2. 9. 6.
      11. 8. 15. 2. 3. 3. 2. 5. 4. 0. 2. 7. 6. 6. 5. 4. 1. 4. 3. 5. 4.
      3. 1. 0. 4. 6. 4. 3. 5. 7. 4. 7. 3. 28. 55. 14. 9. 6. 15. 332. 6.
      7. 13. 6. 4. 9. 6. 8. 11. 6. 10. 8. 6. 13. 29. 11. 5. 23. 6. 2. 8.
      19. 9. 17. 15. 16. 20. 4. 5. 6. 15. 9. 55. 94. 31. 5. 14. 7. 19.
      58. 15. 9. 3. 12. 11. 19. 1. 4. 11. 3. 8. 8. 98. 73. 4. 6. 5. 23.
      316. 4. 10. 8. 8. 2. 2. 10. 12. 11. 6. 9. 17. 18. 22. 15. 5. 5.
      17. 10. 48. 117. 42. 13. 18. 7. 2. 3. 27. 6. 6. 13. 8. 5. 5. 10.
      9. 9. 5. 6. 0. 1. 8. 12. 5. 6. 9. 44. 8. 18. 17. 23. 8. 112. 52.
      7. 6. 4. 13. 218. 4. 6. 4. 3. 2. 5. 5. 2. 8. 6. 3. 11. 5. 6. 4. 4.
      4. 16. 18. 16. 17. 14. 4. 6. 10. 5. 5. 16. 11. 2. 8. 3. 5. 6. 10.
      5. 5. 8. 3. 4. 6. 4. 22. 12. 8. 7. 25. 10. 18. 7. 7. 2. 49. 24. 2.
      3. 4. 8. 96. 5. 2. 5. 5. 13. 19. 2. 5. 2. 4. 15. 7. 5. 11. 4. 3.
      11. 8. 10. 16. 13. 18. 3. 6. 2. 2. 2. 2. 4. 5. 3. 4. 6. 3. 3. 1.
      3. 6. 3. 1. 0. 3. 30. 11. 4. 3. 16. 9. 1. 4. 6. 5. 13.</_>
    <_>
      23. 5. 0. 2. 10. 101. 5. 4. 6. 7. 15. 17. 4. 6. 4. 8. 20. 3. 7. 8.
      4. 6. 8. 8. 7. 12. 15. 12. 6. 7. 1. 2. 0. 5. 5. 4. 4. 4. 3. 0. 1.
      2. 2. 5. 3. 2. 1. 0. 30. 10. 1. 2. 15. 4. 3. 5. 6. 4. 20. 32. 5.
      4. 3. 8. 111. 7. 4. 4. 1. 9. 13. 2. 2. 3. 17. 15. 5. 2. 1. 2. 4.
      2. 9. 1. 0. 1. 5. 3. 3. 1. 5. 5. 2. 6. 9. 6. 8. 14. 6. 9. 7. 7.
      15. 19. 7. 7. 8. 4. 16. 9. 2. 0. 1. 6. 2. 3. 2. 20. 23. 6. 4. 3.
      5. 107. 3. 5. 6. 3. 3. 5. 6. 3. 7. 4. 3. 5. 5. 8. 7. 6. 3. 7. 5.
      8. 12. 15. 1. 7. 5. 1. 2. 2. 3. 3. 2. 1. 3. 2. 8. 2. 4. 3. 7. 2.
      0. 7. 4. 12. 7. 3. 3. 4. 8. 1. 6. 2. 22. 61. 6. 11. 4. 17. 295.
      12. 8. 7. 9. 7. 3. 2. 8. 9. 12. 12. 6. 3. 10. 20. 9. 8. 16. 6. 7.
      13. 21. 6. 7. 15. 19. 20. 11. 2. 6. 23. 14. 53. 84. 31. 4. 6. 7.
      18. 45. 18. 7. 2. 9. 10. 24. 0. 6. 20. 2. 7. 5. 95. 67. 7. 5. 6.
      14. 293. 4. 11. 12. 8. 3. 3. 9. 13. 10. 4. 5. 9. 18. 30. 22. 0. 2.
      20. 16. 49. 101. 51. 6. 10. 4. 3. 7. 15. 9. 5. 16. 8. 2. 9. 16. 5.
      6. 2. 3. 2. 5. 5. 10. 6. 1. 8. 41. 13. 18. 14. 20. 5. 112. 50. 7.
      4. 4. 11. 221. 3. 8. 5. 4. 4. 6. 7. 1. 5. 4. 6. 9. 10. 6. 6. 4. 7.
      22. 9. 23. 27. 12. 6. 9. 6. 5. 4. 8. 5. 0. 3. 6. 7. 1. 2. 4. 6.
      13. 7. 2. 3. 3. 12. 8. 3. 5. 17. 10. 17. 9. 17. 4. 48. 23. 5. 0.
      2. 10. 101. 5. 4. 6. 7. 15. 17. 4. 6. 4. 8. 20. 3. 7. 8. 4. 6. 8.
      8. 7. 12. 15. 12. 6. 7. 1. 2. 0. 5. 5. 4. 4. 4. 3. 0. 1. 2. 2. 5.
      3. 2. 1. 0. 30. 10. 1. 2. 15. 4. 3. 5. 6. 4. 20.</_>
    <_>
      20. 5. 0. 0. 6. 77. 2. 3. 10. 6. 10. 26. 3. 2. 10. 2. 12. 3. 4. 7.
      3. 7. 5. 6. 4. 11. 12. 11. 3. 6. 7. 2. 1. 1. 5. 3. 4. 2. 2. 1. 2.
      0. 3. 12. 4. 1. 0. 2. 28. 15. 2. 3. 6. 5. 1. 8. 4. 7. 13. 23. 5.
      2. 0. 6. 83. 3. 3. 2. 3. 14. 6. 2. 0. 2. 16. 20. 4. 2. 2. 1. 0. 3.
      8. 1. 1. 1. 0. 0. 3. 2. 0. 0. 1. 5. 2. 5. 7. 3. 1. 4. 6. 3. 12.
      28. 6. 4. 3. 12. 15. 5. 1. 0. 2. 3. 1. 3. 0. 11. 34. 8. 3. 5. 4.
      145. 3. 4. 2. 2. 1. 2. 7. 4. 4. 2. 3. 7. 13. 11. 5. 5. 0. 13. 5.
      3. 27. 21. 5. 6. 5. 5. 5. 7. 1. 1. 7. 5. 1. 3. 9. 5. 2. 3. 7. 6.
      6. 4. 4. 2. 5. 7. 4. 9. 9. 4. 7. 1. 32. 66. 10. 7. 7. 14. 332. 3.
      6. 8. 7. 6. 4. 4. 10. 17. 5. 9. 6. 5. 16. 36. 14. 11. 22. 8. 4.
      23. 25. 13. 10. 15. 17. 26. 8. 1. 9. 13. 13. 48. 114. 35. 5. 4. 6.
      17. 47. 12. 16. 4. 15. 20. 22. 3. 5. 17. 4. 6. 9. 101. 53. 7. 7.
      11. 21. 334. 5. 16. 12. 6. 5. 3. 8. 13. 6. 3. 8. 13. 13. 34. 10.
      4. 6. 21. 14. 50. 151. 42. 9. 13. 6. 5. 5. 49. 12. 6. 11. 7. 8. 8.
      12. 4. 9. 3. 5. 3. 2. 5. 14. 8. 8. 4. 55. 9. 15. 13. 18. 12. 106.
      52. 2. 4. 3. 10. 212. 9. 17. 7. 9. 3. 11. 8. 6. 7. 6. 6. 13. 8. 7.
      5. 6. 5. 19. 7. 24. 17. 11. 5. 9. 5. 4. 5. 15. 12. 9. 6. 9. 4. 3.
      7. 3. 6. 5. 4. 2. 6. 6. 39. 11. 6. 7. 30. 8. 10. 8. 9. 6. 39. 20.
      5. 0. 0. 6. 77. 2. 3. 10. 6. 10. 26. 3. 2. 10. 2. 12. 3. 4. 7. 3.
      7. 5. 6. 4. 11. 12. 11. 3. 6. 7. 2. 1. 1. 5. 3. 4. 2. 2. 1. 2. 0.
      3. 12. 4. 1. 0. 2. 28. 15. 2. 3. 6. 5. 1. 8. 4. 7. 13.</_>
    <_>
      23. 4. 2. 0. 7. 117. 4. 4. 6. 8. 13. 24. 3. 1. 8. 11. 20. 4. 7. 9.
      3. 7. 6. 8. 4. 16. 4. 7. 7. 7. 2. 0. 0. 1. 3. 1. 5. 5. 1. 0. 0. 0.
      2. 6. 2. 0. 0. 1. 41. 11. 0. 2. 11. 5. 3. 6. 6. 1. 25. 27. 6. 4.
      2. 6. 122. 2. 4. 3. 2. 12. 8. 7. 0. 2. 23. 21. 0. 1. 0. 0. 1. 0.
      9. 3. 1. 1. 3. 1. 2. 5. 9. 0. 4. 7. 3. 2. 13. 9. 4. 2. 2. 4. 11.
      43. 8. 5. 4. 4. 17. 7. 6. 1. 2. 3. 1. 2. 3. 30. 12. 0. 1. 2. 1.
      78. 0. 3. 2. 1. 0. 0. 1. 4. 5. 0. 2. 7. 8. 9. 6. 0. 1. 8. 3. 21.
      31. 11. 2. 4. 8. 5. 6. 1. 0. 0. 0. 5. 5. 13. 10. 0. 1. 1. 1. 2. 3.
      2. 9. 2. 2. 5. 10. 6. 6. 10. 5. 3. 8. 109. 14. 9. 8. 14. 499. 4.
      5. 14. 3. 3. 2. 14. 10. 6. 4. 4. 7. 5. 6. 7. 4. 4. 28. 10. 7. 6.
      11. 8. 13. 26. 12. 21. 2. 0. 7. 11. 25. 19. 34. 19. 4. 8. 6. 9.
      24. 23. 20. 5. 6. 15. 28. 1. 11. 24. 9. 17. 12. 124. 107. 13. 8.
      4. 11. 494. 5. 4. 7. 4. 2. 1. 15. 16. 6. 4. 7. 25. 24. 16. 8. 1.
      2. 27. 17. 29. 44. 29. 4. 14. 8. 1. 2. 16. 2. 2. 18. 11. 10. 2. 9.
      2. 12. 4. 4. 4. 4. 8. 16. 2. 3. 14. 34. 20. 28. 22. 29. 19. 106.
      65. 14. 9. 6. 13. 313. 2. 9. 13. 7. 4. 4. 11. 2. 8. 3. 7. 10. 6.
      15. 8. 2. 4. 15. 11. 14. 32. 12. 10. 14. 14. 5. 7. 6. 3. 6. 11. 6.
      5. 14. 16. 3. 9. 6. 2. 5. 7. 11. 12. 11. 9. 14. 17. 6. 15. 6. 16.
      7. 68. 23. 4. 2. 0. 7. 117. 4. 4. 6. 8. 13. 24. 3. 1. 8. 11. 20.
      4. 7. 9. 3. 7. 6. 8. 4. 16. 4. 7. 7. 7. 2. 0. 0. 1. 3. 1. 5. 5. 1.
      0. 0. 0. 2. 6. 2. 0. 0. 1. 41. 11. 0. 2. 11. 5. 3. 6. 6. 1. 25.</_>
    <_>
      28. 1. 2. 0. 6. 103. 5. 1. 4. 5. 12. 20. 11. 4. 5. 11. 24. 4. 9.
      4. 5. 8. 10. 9. 7. 9. 10. 10. 8. 4. 1. 2. 0. 0. 1. 7. 6. 1. 2. 0.
      3. 0. 1. 5. 0. 2. 0. 2. 38. 8. 1. 0. 13. 6. 3. 9. 6. 9. 19. 30. 6.
      10. 2. 14. 125. 3. 2. 2. 2. 9. 8. 1. 0. 2. 24. 17. 3. 1. 0. 1. 0.
      4. 10. 3. 0. 0. 2. 2. 4. 10. 4. 7. 5. 2. 5. 4. 5. 6. 4. 8. 3. 6.
      6. 41. 5. 3. 6. 5. 17. 7. 7. 1. 1. 2. 1. 1. 3. 22. 14. 3. 2. 1. 1.
      78. 0. 1. 3. 1. 0. 1. 3. 3. 3. 0. 1. 2. 10. 11. 5. 2. 0. 6. 2. 15.
      30. 18. 2. 1. 3. 3. 4. 5. 0. 0. 1. 3. 2. 13. 13. 0. 1. 5. 0. 3. 3.
      0. 3. 2. 2. 4. 12. 4. 2. 8. 2. 0. 13. 94. 7. 13. 3. 16. 445. 3. 6.
      7. 3. 1. 2. 6. 3. 5. 0. 7. 16. 7. 4. 16. 6. 1. 25. 8. 4. 4. 15. 8.
      13. 30. 13. 20. 5. 2. 1. 10. 15. 29. 33. 32. 1. 17. 2. 13. 25. 19.
      9. 5. 8. 15. 31. 5. 3. 38. 6. 14. 3. 96. 93. 8. 6. 3. 14. 415. 3.
      5. 11. 7. 2. 2. 18. 10. 8. 1. 3. 26. 13. 24. 6. 0. 4. 20. 19. 34.
      53. 25. 5. 13. 10. 4. 5. 13. 3. 1. 17. 9. 7. 3. 5. 3. 8. 9. 2. 1.
      5. 11. 16. 11. 4. 8. 25. 20. 25. 20. 33. 17. 102. 72. 4. 5. 4. 12.
      290. 4. 2. 7. 9. 5. 7. 10. 3. 7. 4. 9. 16. 5. 11. 9. 3. 7. 17. 8.
      21. 17. 17. 8. 12. 9. 4. 5. 1. 6. 3. 8. 5. 3. 3. 12. 1. 5. 3. 2.
      5. 4. 7. 9. 10. 3. 9. 22. 10. 8. 12. 16. 11. 73. 28. 1. 2. 0. 6.
      103. 5. 1. 4. 5. 12. 20. 11. 4. 5. 11. 24. 4. 9. 4. 5. 8. 10. 9.
      7. 9. 10. 10. 8. 4. 1. 2. 0. 0. 1. 7. 6. 1. 2. 0. 3. 0. 1. 5. 0.
      2. 0. 2. 38. 8. 1. 0. 13. 6. 3. 9. 6. 9. 19.</_>
    <_>
      25. 1. 1. 6. 2. 81. 5. 9. 3. 3. 3. 36. 4. 3. 3. 3. 7. 3. 7. 6. 1.
      1. 4. 8. 8. 23. 12. 7. 5. 5. 2. 2. 1. 5. 6. 1. 2. 6. 4. 1. 1. 0.
      1. 6. 5. 0. 1. 0. 35. 14. 2. 1. 13. 9. 4. 9. 6. 7. 12. 18. 1. 3.
      1. 7. 85. 1. 3. 0. 4. 9. 2. 3. 4. 9. 39. 15. 1. 4. 0. 3. 8. 1. 9.
      12. 5. 1. 0. 1. 4. 6. 1. 2. 4. 2. 4. 2. 7. 12. 6. 5. 4. 1. 10. 39.
      13. 3. 0. 7. 19. 5. 4. 1. 3. 2. 1. 5. 5. 15. 24. 3. 3. 5. 10. 115.
      2. 8. 3. 5. 1. 3. 6. 4. 2. 2. 3. 7. 5. 15. 10. 0. 0. 8. 5. 4. 24.
      19. 6. 3. 5. 2. 4. 4. 3. 3. 7. 4. 1. 4. 7. 6. 1. 3. 0. 0. 2. 3. 3.
      5. 1. 3. 1. 3. 4. 7. 5. 1. 21. 106. 8. 10. 5. 24. 469. 9. 3. 16.
      7. 0. 5. 10. 11. 9. 4. 6. 10. 7. 20. 39. 8. 11. 28. 10. 1. 14. 27.
      8. 17. 16. 13. 9. 8. 3. 4. 21. 12. 21. 41. 23. 7. 12. 5. 11. 25.
      12. 9. 3. 4. 5. 28. 1. 3. 21. 4. 24. 8. 105. 109. 12. 18. 9. 24.
      481. 9. 5. 12. 3. 3. 2. 12. 10. 6. 4. 9. 8. 10. 16. 11. 2. 4. 40.
      6. 21. 47. 21. 4. 11. 13. 8. 5. 13. 1. 5. 26. 7. 3. 8. 14. 9. 15.
      2. 3. 5. 8. 15. 4. 2. 9. 17. 23. 8. 25. 14. 19. 15. 135. 38. 5. 5.
      2. 11. 184. 5. 14. 7. 5. 7. 6. 10. 3. 10. 6. 10. 5. 3. 3. 5. 3. 5.
      16. 12. 26. 10. 5. 6. 9. 9. 3. 3. 18. 13. 2. 8. 17. 5. 2. 6. 4. 5.
      18. 5. 1. 5. 2. 38. 22. 8. 10. 26. 10. 11. 3. 6. 3. 36. 25. 1. 1.
      6. 2. 81. 5. 9. 3. 3. 3. 36. 4. 3. 3. 3. 7. 3. 7. 6. 1. 1. 4. 8.
      8. 23. 12. 7. 5. 5. 2. 2. 1. 5. 6. 1. 2. 6. 4. 1. 1. 0. 1. 6. 5.
      0. 1. 0. 35. 14. 2. 1. 13. 9. 4. 9. 6. 7. 12.</_>
    <_>
      20. 0. 2. 0. 5. 80. 1. 7. 4. 7. 4. 30. 2. 2. 2. 3. 12. 5. 7. 6. 6.
      2. 5. 6. 6. 15. 13. 4. 7. 3. 3. 4. 0. 7. 1. 2. 2. 1. 1. 1. 0. 0.
      0. 5. 4. 0. 0. 3. 37. 12. 3. 0. 14. 3. 2. 11. 4. 2. 12. 22. 6. 3.
      1. 2. 78. 3. 2. 5. 6. 15. 8. 8. 3. 13. 29. 22. 1. 5. 1. 1. 12. 6.
      6. 6. 2. 2. 6. 1. 1. 1. 3. 1. 3. 6. 6. 2. 7. 12. 4. 7. 1. 0. 5.
      36. 14. 3. 1. 4. 20. 5. 2. 1. 1. 1. 1. 0. 4. 14. 26. 2. 3. 2. 3.
      109. 1. 4. 5. 3. 2. 2. 3. 3. 4. 3. 4. 4. 7. 16. 12. 0. 2. 7. 4. 4.
      19. 18. 3. 3. 7. 2. 1. 4. 2. 0. 2. 2. 3. 0. 2. 4. 6. 2. 2. 6. 0.
      1. 4. 5. 3. 3. 3. 3. 5. 4. 5. 1. 18. 99. 6. 10. 7. 32. 454. 9. 9.
      19. 9. 1. 1. 14. 8. 7. 1. 7. 10. 5. 12. 24. 3. 7. 32. 8. 7. 17.
      27. 7. 17. 17. 10. 21. 13. 2. 4. 33. 12. 21. 46. 26. 4. 21. 4. 12.
      20. 9. 11. 3. 2. 18. 20. 7. 6. 18. 1. 17. 9. 104. 112. 16. 10. 7.
      24. 503. 5. 4. 8. 8. 2. 3. 12. 12. 7. 2. 4. 23. 8. 16. 11. 4. 6.
      27. 7. 14. 51. 17. 6. 17. 7. 6. 6. 9. 3. 6. 24. 8. 3. 8. 14. 7.
      19. 4. 3. 9. 10. 10. 4. 6. 7. 23. 15. 5. 23. 16. 20. 6. 133. 38.
      3. 6. 3. 15. 192. 9. 8. 9. 6. 6. 8. 5. 4. 7. 5. 10. 6. 5. 9. 3. 1.
      5. 15. 7. 26. 22. 6. 5. 4. 8. 2. 4. 13. 9. 4. 5. 12. 9. 8. 6. 3.
      8. 12. 8. 1. 3. 5. 29. 13. 7. 9. 29. 4. 10. 11. 10. 3. 42. 20. 0.
      2. 0. 5. 80. 1. 7. 4. 7. 4. 30. 2. 2. 2. 3. 12. 5. 7. 6. 6. 2. 5.
      6. 6. 15. 13. 4. 7. 3. 3. 4. 0. 7. 1. 2. 2. 1. 1. 1. 0. 0. 0. 5.
      4. 0. 0. 3. 37. 12. 3. 0. 14. 3. 2. 11. 4. 2. 12.</_>
    <_>
      21. 2. 1. 3. 6. 83. 3. 3. 1. 6. 5. 32. 5. 2. 3. 2. 9. 3. 7. 7. 2.
      5. 3. 7. 8. 18. 10. 5. 0. 6. 1. 4. 0. 2. 2. 3. 2. 4. 3. 0. 2. 1.
      2. 6. 4. 0. 0. 4. 45. 9. 4. 2. 11. 7. 3. 10. 4. 1. 16. 26. 3. 5.
      1. 1. 91. 3. 1. 4. 8. 5. 1. 6. 3. 6. 38. 15. 1. 3. 2. 1. 3. 7. 9.
      5. 7. 1. 2. 3. 3. 3. 2. 3. 2. 6. 2. 4. 6. 10. 2. 6. 3. 8. 11. 39.
      7. 5. 3. 6. 19. 4. 8. 2. 3. 1. 0. 1. 2. 9. 24. 3. 4. 2. 8. 110. 4.
      2. 6. 2. 2. 5. 2. 3. 2. 3. 5. 6. 7. 20. 6. 1. 1. 5. 2. 7. 14. 27.
      1. 0. 5. 2. 0. 0. 2. 0. 5. 1. 3. 5. 3. 1. 1. 0. 0. 2. 3. 0. 2. 5.
      2. 3. 4. 3. 7. 3. 5. 5. 22. 100. 13. 15. 10. 26. 495. 8. 4. 9. 6.
      3. 4. 8. 8. 14. 2. 4. 16. 5. 13. 34. 7. 4. 20. 11. 2. 14. 29. 6.
      10. 18. 7. 25. 11. 2. 3. 28. 6. 17. 49. 26. 7. 9. 1. 11. 18. 18.
      8. 0. 4. 7. 18. 1. 2. 20. 2. 16. 5. 121. 97. 11. 10. 6. 23. 437.
      8. 10. 14. 10. 0. 4. 17. 8. 10. 1. 6. 10. 18. 30. 13. 4. 6. 30. 9.
      22. 48. 33. 11. 22. 10. 10. 13. 21. 2. 4. 26. 7. 6. 9. 19. 5. 26.
      2. 3. 4. 10. 11. 9. 5. 4. 14. 26. 5. 29. 13. 14. 13. 112. 41. 4.
      5. 5. 10. 189. 6. 13. 9. 4. 6. 4. 9. 7. 7. 8. 12. 10. 6. 6. 2. 2.
      7. 10. 11. 27. 12. 13. 6. 9. 9. 6. 6. 13. 12. 4. 6. 8. 8. 5. 7. 3.
      9. 14. 13. 1. 1. 6. 33. 17. 3. 14. 30. 9. 4. 5. 7. 5. 38. 21. 2.
      1. 3. 6. 83. 3. 3. 1. 6. 5. 32. 5. 2. 3. 2. 9. 3. 7. 7. 2. 5. 3.
      7. 8. 18. 10. 5. 0. 6. 1. 4. 0. 2. 2. 3. 2. 4. 3. 0. 2. 1. 2. 6.
      4. 0. 0. 4. 45. 9. 4. 2. 11. 7. 3. 10. 4. 1. 16.</_>
    <_>
      35. 2. 5. 2. 11. 141. 8. 12. 7. 5. 4. 11. 7. 3. 2. 6. 19. 4. 10.
      6. 1. 4. 4. 7. 13. 17. 13. 9. 4. 8. 1. 5. 2. 3. 10. 5. 5. 8. 4. 6.
      7. 4. 1. 9. 0. 0. 2. 4. 28. 12. 3. 1. 15. 12. 6. 5. 11. 6. 21. 31.
      4. 7. 3. 5. 150. 1. 6. 5. 9. 7. 13. 7. 3. 3. 8. 10. 6. 3. 4. 2. 4.
      6. 7. 3. 4. 2. 1. 2. 7. 8. 8. 1. 2. 0. 5. 4. 7. 9. 6. 3. 3. 6. 14.
      27. 10. 4. 11. 2. 19. 6. 9. 3. 1. 1. 2. 4. 1. 30. 25. 0. 4. 2. 4.
      110. 0. 6. 5. 5. 3. 2. 7. 5. 4. 2. 2. 3. 6. 7. 7. 1. 2. 3. 1. 7.
      15. 17. 2. 11. 3. 1. 11. 10. 1. 2. 4. 0. 6. 6. 16. 4. 4. 0. 1. 2.
      0. 2. 0. 1. 3. 6. 2. 0. 4. 3. 4. 6. 14. 63. 9. 11. 3. 15. 294. 7.
      9. 7. 5. 18. 22. 15. 3. 8. 22. 19. 9. 9. 11. 15. 7. 11. 20. 15. 7.
      27. 15. 8. 5. 10. 14. 9. 3. 8. 10. 5. 14. 17. 29. 12. 7. 9. 7. 13.
      19. 5. 8. 10. 12. 13. 12. 13. 9. 23. 9. 11. 11. 69. 67. 10. 10. 3.
      8. 283. 13. 14. 4. 2. 6. 20. 8. 11. 11. 25. 10. 8. 10. 6. 6. 5. 7.
      15. 12. 31. 65. 15. 5. 10. 9. 5. 8. 32. 18. 10. 9. 7. 4. 8. 16. 3.
      10. 5. 4. 1. 5. 6. 19. 9. 4. 13. 35. 13. 10. 17. 14. 9. 77. 71. 7.
      4. 5. 15. 286. 4. 0. 4. 4. 1. 1. 3. 6. 6. 1. 6. 12. 9. 3. 6. 2. 6.
      20. 8. 8. 18. 10. 5. 8. 13. 10. 4. 5. 2. 0. 6. 6. 7. 6. 15. 1. 5.
      6. 7. 7. 3. 13. 4. 15. 6. 15. 5. 4. 17. 5. 8. 8. 72. 35. 2. 5. 2.
      11. 141. 8. 12. 7. 5. 4. 11. 7. 3. 2. 6. 19. 4. 10. 6. 1. 4. 4. 7.
      13. 17. 13. 9. 4. 8. 1. 5. 2. 3. 10. 5. 5. 8. 4. 6. 7. 4. 1. 9. 0.
      0. 2. 4. 28. 12. 3. 1. 15. 12. 6. 5. 11. 6. 21.</_>
    <_>
      32. 5. 5. 2. 9. 135. 6. 12. 3. 7. 3. 14. 3. 1. 5. 8. 12. 9. 8. 9.
      1. 2. 4. 12. 7. 14. 14. 9. 3. 9. 7. 2. 4. 5. 9. 10. 7. 6. 4. 0. 5.
      3. 4. 15. 3. 0. 1. 1. 37. 18. 4. 2. 11. 8. 5. 4. 9. 5. 24. 38. 7.
      5. 3. 6. 159. 7. 3. 4. 5. 4. 8. 6. 2. 7. 13. 15. 7. 7. 0. 8. 2. 4.
      13. 3. 3. 4. 3. 3. 5. 4. 7. 5. 3. 8. 2. 5. 10. 10. 3. 2. 3. 11.
      10. 27. 13. 7. 1. 5. 20. 9. 10. 1. 3. 4. 3. 3. 6. 27. 27. 4. 2. 7.
      5. 114. 1. 3. 5. 5. 0. 1. 9. 5. 5. 1. 2. 5. 5. 11. 7. 4. 2. 0. 1.
      2. 12. 23. 4. 5. 3. 2. 13. 12. 1. 2. 6. 1. 4. 9. 25. 3. 2. 1. 2.
      0. 4. 2. 2. 2. 1. 1. 1. 2. 1. 2. 5. 6. 16. 60. 12. 5. 5. 13. 282.
      4. 10. 3. 5. 14. 18. 10. 5. 10. 20. 16. 16. 6. 14. 6. 10. 8. 21.
      9. 17. 22. 22. 9. 7. 12. 4. 9. 4. 6. 10. 9. 11. 24. 26. 8. 5. 9.
      10. 13. 19. 9. 6. 6. 11. 10. 11. 13. 10. 9. 3. 18. 10. 61. 56. 9.
      8. 7. 2. 246. 10. 20. 10. 4. 1. 13. 10. 11. 10. 13. 5. 11. 20. 7.
      5. 3. 2. 15. 11. 32. 58. 26. 9. 9. 6. 12. 6. 29. 23. 5. 15. 11. 2.
      6. 16. 8. 12. 3. 4. 0. 6. 6. 13. 6. 3. 5. 36. 17. 14. 14. 21. 5.
      68. 66. 4. 6. 3. 8. 284. 1. 1. 4. 3. 4. 4. 7. 8. 3. 2. 11. 12. 7.
      4. 6. 3. 2. 23. 7. 16. 14. 6. 1. 9. 13. 10. 2. 3. 1. 0. 6. 18. 8.
      6. 12. 2. 9. 11. 5. 8. 8. 9. 6. 17. 16. 18. 7. 6. 18. 6. 17. 4.
      61. 32. 5. 5. 2. 9. 135. 6. 12. 3. 7. 3. 14. 3. 1. 5. 8. 12. 9. 8.
      9. 1. 2. 4. 12. 7. 14. 14. 9. 3. 9. 7. 2. 4. 5. 9. 10. 7. 6. 4. 0.
      5. 3. 4. 15. 3. 0. 1. 1. 37. 18. 4. 2. 11. 8. 5. 4. 9. 5. 24.</_>
    <_>
      35. 3. 4. 7. 5. 131. 3. 11. 9. 5. 7. 17. 3. 4. 7. 9. 10. 4. 10. 9.
      3. 7. 6. 9. 5. 16. 11. 8. 6. 13. 3. 2. 3. 4. 10. 7. 6. 7. 5. 4. 8.
      5. 3. 12. 2. 1. 1. 2. 31. 13. 1. 3. 12. 10. 5. 7. 10. 3. 19. 35.
      7. 4. 4. 5. 161. 1. 6. 4. 10. 6. 11. 4. 1. 12. 8. 4. 3. 7. 2. 3.
      8. 6. 5. 2. 2. 1. 2. 1. 3. 8. 6. 3. 4. 2. 5. 5. 8. 8. 4. 7. 3. 8.
      10. 28. 10. 6. 6. 1. 13. 5. 6. 1. 1. 2. 2. 3. 3. 33. 22. 4. 3. 4.
      13. 81. 2. 1. 3. 1. 2. 3. 2. 2. 6. 3. 3. 0. 6. 12. 9. 4. 2. 4. 1.
      1. 17. 23. 2. 3. 3. 4. 11. 9. 0. 2. 2. 1. 3. 8. 13. 3. 3. 1. 1. 2.
      3. 3. 1. 2. 2. 2. 0. 1. 2. 3. 2. 3. 16. 71. 15. 11. 6. 11. 334. 4.
      7. 5. 4. 10. 7. 9. 4. 6. 19. 23. 11. 7. 10. 12. 8. 3. 14. 9. 8.
      24. 18. 11. 6. 15. 10. 5. 6. 5. 5. 7. 13. 22. 43. 14. 5. 9. 3. 10.
      20. 6. 8. 9. 10. 14. 14. 10. 6. 26. 7. 12. 9. 70. 56. 9. 9. 6. 9.
      295. 11. 8. 13. 4. 6. 12. 10. 5. 9. 24. 6. 14. 21. 21. 11. 3. 3.
      19. 13. 32. 60. 22. 6. 12. 6. 9. 5. 18. 13. 2. 9. 6. 5. 7. 14. 2.
      7. 4. 5. 5. 5. 4. 16. 7. 9. 5. 27. 10. 17. 18. 24. 15. 77. 51. 4.
      5. 0. 5. 232. 4. 1. 5. 3. 3. 3. 10. 4. 4. 1. 5. 11. 3. 5. 5. 3. 2.
      15. 7. 11. 13. 10. 5. 7. 10. 7. 7. 3. 2. 4. 10. 10. 7. 11. 14. 1.
      4. 2. 8. 5. 6. 9. 7. 7. 6. 12. 10. 6. 11. 2. 15. 4. 43. 35. 3. 4.
      7. 5. 131. 3. 11. 9. 5. 7. 17. 3. 4. 7. 9. 10. 4. 10. 9. 3. 7. 6.
      9. 5. 16. 11. 8. 6. 13. 3. 2. 3. 4. 10. 7. 6. 7. 5. 4. 8. 5. 3.
      12. 2. 1. 1. 2. 31. 13. 1. 3. 12. 10. 5. 7. 10. 3. 19.</_>
    <_>
      25. 5. 2. 2. 9. 109. 3. 8. 7. 5. 17. 19. 7. 8. 9. 4. 17. 5. 7. 7.
      4. 3. 10. 6. 4. 15. 15. 13. 4. 8. 2. 3. 0. 4. 7. 4. 5. 7. 2. 0. 4.
      3. 5. 8. 8. 1. 3. 3. 27. 13. 2. 2. 13. 10. 2. 6. 5. 3. 20. 43. 4.
      5. 6. 8. 134. 10. 6. 3. 0. 8. 14. 3. 3. 4. 14. 13. 2. 2. 1. 6. 3.
      5. 9. 5. 2. 1. 3. 3. 3. 4. 6. 5. 5. 6. 11. 4. 6. 6. 7. 9. 6. 2.
      12. 17. 6. 4. 5. 3. 18. 4. 9. 1. 4. 7. 2. 6. 1. 30. 20. 1. 5. 1.
      2. 87. 1. 4. 3. 4. 3. 4. 2. 2. 6. 3. 6. 5. 4. 12. 15. 1. 3. 7. 7.
      5. 10. 11. 1. 2. 4. 5. 6. 11. 0. 0. 2. 7. 6. 4. 7. 2. 8. 2. 4. 4.
      3. 3. 3. 3. 6. 2. 3. 3. 7. 3. 6. 4. 13. 57. 24. 5. 5. 3. 320. 4.
      4. 2. 2. 2. 1. 7. 2. 1. 5. 2. 9. 3. 4. 3. 2. 2. 16. 6. 7. 3. 10.
      2. 5. 24. 12. 8. 7. 1. 3. 8. 19. 43. 49. 14. 1. 9. 10. 28. 38. 22.
      14. 7. 14. 19. 33. 2. 3. 20. 4. 9. 7. 98. 43. 6. 2. 1. 11. 269. 0.
      3. 9. 4. 1. 5. 14. 12. 7. 1. 2. 24. 16. 24. 18. 2. 4. 19. 21. 39.
      73. 30. 7. 14. 8. 6. 1. 1. 0. 1. 6. 13. 7. 0. 5. 1. 4. 5. 4. 0. 4.
      5. 20. 21. 7. 8. 42. 15. 20. 18. 27. 9. 105. 59. 6. 4. 0. 12. 210.
      3. 4. 3. 9. 3. 5. 5. 4. 8. 0. 7. 7. 8. 16. 7. 9. 9. 6. 8. 9. 29.
      22. 6. 5. 2. 3. 3. 4. 2. 2. 9. 3. 2. 1. 8. 1. 2. 3. 2. 3. 3. 5. 3.
      3. 3. 6. 7. 7. 9. 8. 6. 8. 59. 25. 5. 2. 2. 9. 109. 3. 8. 7. 5.
      17. 19. 7. 8. 9. 4. 17. 5. 7. 7. 4. 3. 10. 6. 4. 15. 15. 13. 4. 8.
      2. 3. 0. 4. 7. 4. 5. 7. 2. 0. 4. 3. 5. 8. 8. 1. 3. 3. 27. 13. 2.
      2. 13. 10. 2. 6. 5. 3. 20.</_>
    <_>
      22. 3. 4. 2. 8. 110. 4. 5. 5. 5. 12. 25. 8. 5. 6. 4. 13. 6. 10. 6.
      5. 4. 9. 7. 10. 14. 11. 15. 6. 5. 8. 3. 1. 5. 6. 3. 6. 3. 1. 4. 4.
      3. 5. 5. 1. 0. 1. 0. 26. 15. 1. 1. 12. 7. 3. 6. 2. 3. 22. 27. 7.
      5. 1. 6. 133. 12. 4. 2. 2. 6. 22. 5. 1. 5. 10. 18. 3. 1. 1. 2. 4.
      2. 9. 3. 2. 0. 2. 1. 4. 4. 5. 7. 5. 9. 4. 5. 7. 8. 2. 3. 3. 8. 9.
      25. 8. 9. 4. 1. 13. 4. 6. 0. 0. 4. 1. 0. 2. 28. 19. 5. 4. 3. 7.
      102. 2. 0. 4. 0. 3. 2. 3. 2. 6. 5. 7. 7. 8. 10. 5. 3. 1. 9. 6. 3.
      7. 15. 2. 2. 4. 4. 3. 4. 1. 1. 3. 4. 3. 2. 10. 0. 2. 3. 4. 4. 3.
      0. 5. 9. 5. 3. 3. 7. 3. 5. 2. 5. 20. 57. 15. 4. 9. 10. 331. 8. 7.
      2. 3. 4. 4. 12. 4. 2. 4. 8. 10. 6. 1. 0. 5. 2. 17. 8. 6. 4. 5. 2.
      8. 18. 23. 9. 9. 2. 2. 10. 14. 38. 70. 22. 4. 15. 9. 20. 30. 19.
      10. 3. 9. 14. 37. 0. 5. 18. 4. 15. 9. 84. 56. 4. 5. 2. 4. 314. 0.
      4. 9. 4. 3. 0. 15. 7. 6. 2. 0. 20. 21. 18. 18. 1. 1. 13. 20. 37.
      76. 42. 3. 12. 5. 6. 2. 6. 3. 2. 16. 9. 8. 3. 9. 0. 8. 5. 3. 2. 1.
      8. 17. 6. 2. 7. 35. 24. 20. 19. 24. 13. 100. 54. 8. 6. 1. 9. 236.
      2. 4. 6. 4. 2. 4. 10. 4. 4. 6. 8. 8. 4. 8. 9. 9. 5. 17. 8. 9. 14.
      19. 2. 11. 5. 1. 5. 1. 1. 4. 7. 6. 4. 5. 7. 3. 3. 2. 1. 0. 4. 7.
      0. 7. 2. 5. 8. 5. 8. 8. 14. 4. 62. 22. 3. 4. 2. 8. 110. 4. 5. 5.
      5. 12. 25. 8. 5. 6. 4. 13. 6. 10. 6. 5. 4. 9. 7. 10. 14. 11. 15.
      6. 5. 8. 3. 1. 5. 6. 3. 6. 3. 1. 4. 4. 3. 5. 5. 1. 0. 1. 0. 26.
      15. 1. 1. 12. 7. 3. 6. 2. 3. 22.</_>
    <_>
      23. 2. 5. 2. 8. 122. 1. 7. 5. 9. 13. 20. 5. 4. 5. 9. 15. 5. 8. 10.
      5. 4. 11. 15. 6. 11. 16. 16. 3. 4. 4. 3. 2. 1. 1. 2. 5. 2. 2. 1.
      2. 1. 8. 7. 0. 0. 1. 0. 34. 13. 1. 1. 16. 7. 5. 4. 4. 4. 29. 30.
      8. 6. 4. 4. 105. 8. 7. 1. 2. 11. 21. 3. 2. 6. 10. 12. 4. 1. 1. 0.
      1. 5. 9. 3. 7. 3. 2. 2. 4. 4. 5. 6. 6. 6. 12. 5. 11. 8. 5. 8. 4.
      6. 8. 20. 4. 5. 10. 8. 15. 3. 5. 4. 3. 4. 0. 1. 1. 25. 20. 0. 5.
      3. 4. 106. 2. 1. 5. 0. 0. 3. 1. 3. 2. 2. 3. 7. 5. 6. 5. 2. 2. 8.
      7. 5. 14. 13. 3. 0. 4. 2. 4. 8. 0. 2. 2. 6. 1. 1. 7. 4. 2. 4. 4.
      6. 1. 4. 1. 6. 3. 3. 2. 3. 4. 4. 4. 0. 23. 46. 11. 8. 6. 5. 284.
      5. 6. 6. 2. 3. 1. 9. 0. 2. 4. 5. 11. 3. 2. 1. 1. 2. 19. 17. 9. 2.
      5. 1. 3. 23. 20. 19. 14. 1. 2. 10. 19. 40. 59. 29. 6. 9. 10. 21.
      33. 21. 11. 10. 22. 19. 23. 2. 7. 15. 8. 11. 7. 94. 48. 4. 6. 3.
      10. 293. 1. 4. 8. 3. 4. 2. 12. 10. 9. 1. 6. 20. 22. 28. 16. 1. 2.
      15. 11. 31. 80. 38. 6. 16. 7. 6. 0. 1. 4. 1. 10. 10. 3. 4. 4. 3.
      7. 10. 3. 2. 2. 5. 20. 12. 3. 8. 34. 15. 8. 20. 27. 14. 91. 63. 8.
      8. 3. 13. 252. 1. 6. 7. 3. 2. 5. 8. 5. 8. 3. 8. 10. 5. 10. 7. 3.
      11. 16. 1. 10. 26. 13. 9. 7. 9. 2. 4. 6. 4. 2. 14. 7. 3. 5. 7. 5.
      4. 1. 1. 2. 4. 9. 3. 4. 3. 7. 6. 3. 15. 9. 6. 8. 72. 23. 2. 5. 2.
      8. 122. 1. 7. 5. 9. 13. 20. 5. 4. 5. 9. 15. 5. 8. 10. 5. 4. 11.
      15. 6. 11. 16. 16. 3. 4. 4. 3. 2. 1. 1. 2. 5. 2. 2. 1. 2. 1. 8. 7.
      0. 0. 1. 0. 34. 13. 1. 1. 16. 7. 5. 4. 4. 4. 29.</_>
    <_>
      29. 2. 1. 2. 9. 99. 2. 3. 3. 6. 18. 22. 4. 3. 5. 12. 27. 4. 8. 5.
      7. 8. 8. 9. 6. 14. 9. 9. 3. 3. 3. 1. 2. 0. 3. 4. 5. 4. 0. 0. 0. 0.
      1. 4. 3. 0. 0. 1. 34. 13. 0. 2. 14. 6. 10. 7. 3. 6. 18. 35. 4. 8.
      5. 5. 143. 2. 6. 3. 2. 16. 7. 4. 2. 3. 22. 18. 2. 1. 0. 1. 1. 3.
      7. 3. 0. 0. 2. 2. 5. 10. 5. 9. 5. 6. 5. 5. 5. 7. 7. 8. 8. 5. 4.
      41. 11. 5. 5. 4. 10. 5. 9. 0. 1. 3. 0. 0. 3. 31. 14. 2. 1. 0. 3.
      56. 0. 1. 2. 1. 0. 0. 7. 5. 1. 0. 2. 10. 10. 7. 7. 1. 1. 2. 3. 16.
      38. 20. 4. 1. 4. 3. 5. 0. 1. 0. 2. 2. 3. 7. 8. 1. 1. 4. 2. 2. 2.
      0. 3. 1. 0. 2. 10. 8. 1. 10. 5. 3. 7. 89. 10. 12. 5. 4. 394. 2. 4.
      6. 1. 0. 0. 11. 5. 3. 2. 2. 13. 3. 3. 2. 1. 3. 26. 5. 1. 8. 13. 2.
      3. 26. 14. 9. 10. 0. 1. 7. 15. 18. 36. 22. 6. 6. 5. 13. 18. 15.
      12. 9. 12. 20. 36. 2. 3. 26. 2. 14. 3. 87. 68. 8. 5. 3. 13. 336.
      5. 5. 10. 3. 1. 1. 14. 6. 7. 3. 6. 26. 20. 18. 5. 2. 1. 20. 15.
      34. 28. 16. 2. 6. 8. 5. 7. 11. 4. 3. 11. 6. 7. 6. 6. 2. 6. 13. 2.
      0. 4. 7. 20. 12. 7. 9. 41. 22. 27. 19. 27. 20. 81. 78. 6. 10. 2.
      20. 311. 3. 0. 12. 5. 1. 0. 10. 15. 9. 4. 11. 12. 7. 10. 17. 7.
      11. 15. 7. 8. 17. 26. 9. 10. 5. 0. 3. 3. 0. 3. 15. 6. 5. 5. 7. 2.
      11. 0. 4. 5. 3. 8. 1. 6. 4. 10. 7. 4. 21. 5. 20. 7. 74. 29. 2. 1.
      2. 9. 99. 2. 3. 3. 6. 18. 22. 4. 3. 5. 12. 27. 4. 8. 5. 7. 8. 8.
      9. 6. 14. 9. 9. 3. 3. 3. 1. 2. 0. 3. 4. 5. 4. 0. 0. 0. 0. 1. 4. 3.
      0. 0. 1. 34. 13. 0. 2. 14. 6. 10. 7. 3. 6. 18.</_>
    <_>
      27. 4. 2. 1. 3. 123. 4. 1. 4. 7. 16. 23. 4. 5. 2. 14. 24. 5. 2.
      11. 8. 5. 5. 8. 9. 20. 17. 16. 4. 8. 1. 1. 0. 1. 5. 2. 0. 1. 0. 1.
      1. 2. 0. 9. 3. 0. 0. 3. 41. 10. 1. 1. 15. 6. 2. 4. 15. 4. 18. 33.
      5. 10. 5. 8. 140. 5. 3. 3. 6. 18. 11. 3. 3. 1. 16. 24. 5. 2. 0. 5.
      2. 4. 8. 3. 3. 1. 5. 1. 3. 5. 6. 6. 5. 2. 9. 8. 7. 20. 5. 10. 6.
      8. 6. 43. 11. 5. 3. 2. 17. 6. 6. 0. 3. 6. 0. 1. 4. 30. 14. 3. 1.
      2. 0. 67. 3. 2. 2. 0. 0. 0. 3. 2. 3. 1. 0. 2. 11. 14. 7. 1. 0. 2.
      3. 12. 32. 19. 1. 1. 5. 4. 1. 3. 0. 0. 2. 2. 4. 5. 5. 0. 0. 1. 0.
      2. 0. 0. 4. 1. 0. 2. 10. 1. 3. 8. 4. 3. 10. 80. 12. 6. 7. 6. 357.
      1. 3. 7. 2. 1. 0. 9. 5. 4. 0. 3. 14. 6. 3. 2. 3. 2. 24. 7. 3. 7.
      11. 1. 7. 21. 14. 13. 3. 0. 1. 5. 13. 21. 27. 12. 6. 11. 7. 17.
      21. 19. 10. 4. 11. 14. 22. 5. 7. 18. 6. 17. 6. 91. 74. 2. 3. 4.
      10. 355. 0. 3. 3. 1. 0. 0. 9. 8. 8. 2. 4. 23. 14. 13. 6. 2. 1. 27.
      21. 28. 31. 13. 4. 4. 8. 3. 4. 14. 3. 2. 4. 6. 4. 7. 9. 7. 10. 8.
      5. 1. 5. 2. 15. 8. 3. 11. 20. 26. 23. 19. 28. 7. 80. 59. 3. 5. 2.
      16. 237. 4. 4. 11. 8. 3. 2. 5. 6. 7. 4. 11. 5. 10. 12. 9. 7. 6.
      20. 12. 12. 23. 20. 7. 13. 4. 2. 2. 3. 2. 4. 9. 4. 4. 2. 7. 5. 5.
      1. 1. 2. 2. 5. 3. 5. 3. 5. 7. 3. 8. 9. 13. 8. 64. 27. 4. 2. 1. 3.
      123. 4. 1. 4. 7. 16. 23. 4. 5. 2. 14. 24. 5. 2. 11. 8. 5. 5. 8. 9.
      20. 17. 16. 4. 8. 1. 1. 0. 1. 5. 2. 0. 1. 0. 1. 1. 2. 0. 9. 3. 0.
      0. 3. 41. 10. 1. 1. 15. 6. 2. 4. 15. 4. 18.</_>
    <_>
      23. 2. 3. 0. 3. 97. 2. 3. 7. 5. 14. 23. 5. 4. 6. 15. 20. 4. 7. 6.
      4. 4. 6. 8. 7. 21. 12. 10. 7. 5. 3. 1. 1. 0. 0. 3. 3. 3. 1. 2. 3.
      1. 2. 3. 2. 1. 0. 0. 48. 11. 0. 3. 19. 8. 2. 5. 6. 3. 17. 36. 9.
      10. 4. 9. 155. 4. 6. 3. 2. 16. 9. 1. 2. 1. 23. 20. 0. 0. 0. 2. 1.
      4. 12. 3. 1. 2. 1. 0. 4. 6. 7. 6. 9. 5. 7. 2. 5. 13. 12. 11. 1. 6.
      11. 40. 11. 4. 7. 3. 16. 6. 8. 0. 2. 2. 1. 3. 2. 30. 17. 1. 2. 0.
      0. 76. 0. 2. 4. 2. 0. 0. 4. 0. 2. 0. 2. 4. 16. 10. 7. 3. 0. 7. 3.
      14. 38. 14. 4. 1. 5. 1. 3. 3. 0. 0. 1. 2. 4. 10. 7. 0. 2. 1. 1. 2.
      1. 0. 6. 3. 4. 4. 9. 3. 1. 9. 6. 3. 12. 65. 13. 11. 4. 10. 364. 6.
      2. 5. 2. 0. 2. 9. 4. 3. 0. 6. 18. 6. 5. 5. 4. 2. 24. 4. 9. 6. 8.
      2. 5. 29. 10. 5. 4. 0. 0. 3. 14. 24. 22. 17. 3. 8. 7. 31. 25. 13.
      10. 22. 13. 17. 23. 7. 11. 15. 8. 11. 6. 82. 67. 11. 4. 6. 9. 333.
      2. 2. 8. 4. 0. 1. 16. 5. 6. 1. 5. 25. 15. 16. 5. 2. 1. 20. 14. 25.
      33. 26. 3. 7. 13. 11. 2. 11. 4. 0. 4. 9. 7. 3. 7. 5. 4. 8. 2. 5.
      4. 8. 26. 15. 6. 13. 29. 15. 17. 19. 26. 18. 81. 69. 12. 5. 5. 7.
      278. 3. 4. 8. 8. 2. 3. 13. 3. 2. 0. 6. 12. 8. 14. 8. 7. 5. 15. 11.
      5. 18. 25. 4. 8. 10. 4. 3. 4. 2. 4. 13. 5. 6. 6. 13. 4. 7. 1. 1.
      4. 5. 7. 1. 6. 5. 12. 5. 6. 16. 7. 17. 7. 65. 23. 2. 3. 0. 3. 97.
      2. 3. 7. 5. 14. 23. 5. 4. 6. 15. 20. 4. 7. 6. 4. 4. 6. 8. 7. 21.
      12. 10. 7. 5. 3. 1. 1. 0. 0. 3. 3. 3. 1. 2. 3. 1. 2. 3. 2. 1. 0.
      0. 48. 11. 0. 3. 19. 8. 2. 5. 6. 3. 17.</_>
    <_>
      20. 4. 3. 1. 3. 82. 4. 8. 5. 4. 10. 33. 3. 2. 5. 7. 14. 5. 6. 6.
      3. 2. 2. 6. 9. 18. 10. 9. 7. 6. 1. 3. 0. 5. 4. 3. 5. 6. 3. 4. 0.
      1. 2. 6. 0. 0. 0. 0. 30. 14. 0. 1. 16. 9. 4. 4. 8. 0. 15. 24. 3.
      3. 2. 6. 91. 7. 3. 8. 12. 4. 9. 7. 3. 8. 38. 16. 6. 2. 0. 6. 11.
      5. 8. 4. 4. 0. 9. 2. 5. 6. 2. 3. 2. 4. 3. 1. 7. 2. 3. 5. 2. 5. 9.
      50. 6. 4. 3. 4. 20. 4. 5. 2. 1. 5. 1. 6. 1. 12. 23. 8. 4. 2. 4.
      97. 1. 2. 2. 0. 1. 2. 5. 3. 4. 0. 3. 5. 6. 12. 5. 0. 0. 9. 3. 9.
      28. 16. 0. 3. 3. 5. 3. 1. 0. 3. 1. 2. 4. 3. 8. 2. 3. 8. 2. 6. 3.
      0. 4. 4. 1. 4. 1. 4. 7. 2. 8. 2. 23. 107. 10. 8. 10. 24. 475. 9.
      4. 12. 9. 1. 5. 5. 9. 8. 6. 6. 12. 7. 8. 9. 6. 10. 37. 4. 4. 5.
      17. 6. 15. 20. 12. 19. 13. 4. 6. 28. 13. 16. 33. 30. 3. 12. 3. 8.
      15. 15. 4. 1. 5. 13. 19. 3. 3. 33. 5. 9. 12. 115. 98. 8. 16. 10.
      17. 460. 4. 2. 17. 5. 0. 3. 15. 12. 6. 1. 3. 18. 10. 25. 27. 10.
      7. 31. 10. 15. 33. 25. 13. 14. 9. 8. 7. 6. 3. 5. 19. 11. 9. 17. 9.
      1. 27. 3. 3. 3. 6. 9. 7. 10. 10. 19. 15. 8. 23. 16. 20. 8. 114.
      53. 10. 2. 2. 6. 214. 5. 6. 10. 2. 5. 2. 12. 6. 3. 3. 5. 9. 3. 14.
      12. 7. 2. 17. 4. 8. 14. 18. 6. 12. 11. 4. 4. 5. 3. 2. 12. 5. 3. 4.
      6. 1. 4. 3. 2. 4. 5. 4. 3. 5. 5. 5. 2. 6. 18. 7. 7. 8. 60. 20. 4.
      3. 1. 3. 82. 4. 8. 5. 4. 10. 33. 3. 2. 5. 7. 14. 5. 6. 6. 3. 2. 2.
      6. 9. 18. 10. 9. 7. 6. 1. 3. 0. 5. 4. 3. 5. 6. 3. 4. 0. 1. 2. 6.
      0. 0. 0. 0. 30. 14. 0. 1. 16. 9. 4. 4. 8. 0. 15.</_>
    <_>
      23. 4. 5. 2. 6. 105. 1. 5. 5. 6. 6. 32. 8. 3. 3. 5. 8. 6. 7. 5. 7.
      2. 5. 4. 4. 13. 8. 11. 6. 5. 0. 1. 0. 1. 2. 1. 1. 3. 2. 1. 3. 1.
      4. 6. 0. 0. 0. 1. 43. 9. 0. 1. 9. 4. 1. 7. 8. 5. 17. 30. 7. 1. 5.
      6. 103. 5. 2. 2. 10. 8. 4. 6. 3. 6. 35. 18. 1. 5. 1. 7. 7. 5. 11.
      2. 1. 1. 4. 1. 3. 4. 1. 1. 2. 5. 2. 1. 7. 10. 6. 6. 7. 7. 12. 35.
      13. 2. 5. 8. 12. 7. 6. 0. 1. 3. 1. 2. 0. 18. 12. 4. 8. 3. 3. 76.
      2. 5. 4. 2. 0. 0. 3. 5. 4. 0. 2. 5. 6. 13. 5. 1. 2. 5. 3. 15. 12.
      15. 3. 3. 1. 5. 4. 6. 0. 2. 3. 5. 7. 1. 5. 1. 2. 3. 0. 2. 4. 2. 5.
      6. 1. 4. 3. 1. 2. 5. 6. 5. 18. 110. 18. 15. 15. 22. 475. 3. 9. 9.
      4. 1. 2. 16. 5. 5. 3. 4. 10. 8. 7. 11. 1. 6. 23. 7. 7. 8. 20. 4.
      11. 25. 12. 19. 10. 3. 6. 23. 9. 14. 44. 23. 8. 16. 1. 9. 9. 27.
      14. 3. 0. 11. 20. 3. 1. 29. 6. 12. 7. 117. 106. 9. 11. 3. 23. 493.
      2. 4. 17. 3. 2. 2. 7. 9. 6. 6. 7. 25. 15. 14. 10. 5. 5. 42. 7. 7.
      45. 23. 17. 12. 13. 2. 2. 2. 2. 4. 21. 11. 2. 9. 11. 5. 13. 0. 3.
      3. 6. 15. 11. 1. 8. 18. 9. 6. 32. 11. 22. 13. 128. 52. 3. 7. 2.
      13. 240. 6. 2. 6. 5. 2. 4. 7. 9. 7. 4. 6. 13. 4. 10. 7. 4. 3. 11.
      4. 8. 15. 16. 7. 6. 7. 3. 4. 7. 1. 5. 16. 5. 1. 6. 10. 0. 7. 0. 5.
      6. 3. 3. 4. 6. 5. 6. 6. 3. 6. 5. 11. 5. 51. 23. 4. 5. 2. 6. 105.
      1. 5. 5. 6. 6. 32. 8. 3. 3. 5. 8. 6. 7. 5. 7. 2. 5. 4. 4. 13. 8.
      11. 6. 5. 0. 1. 0. 1. 2. 1. 1. 3. 2. 1. 3. 1. 4. 6. 0. 0. 0. 1.
      43. 9. 0. 1. 9. 4. 1. 7. 8. 5. 17.</_>
    <_>
      24. 1. 5. 1. 1. 109. 5. 6. 4. 7. 5. 34. 4. 3. 3. 11. 11. 7. 4. 5.
      3. 5. 3. 12. 8. 17. 15. 8. 1. 9. 2. 2. 1. 0. 4. 3. 5. 2. 3. 1. 4.
      1. 4. 5. 3. 1. 1. 1. 38. 10. 1. 5. 15. 3. 5. 8. 6. 3. 16. 26. 4.
      4. 1. 5. 108. 6. 5. 4. 4. 11. 7. 9. 3. 10. 35. 17. 2. 2. 2. 4. 9.
      4. 6. 2. 5. 1. 1. 2. 2. 0. 2. 1. 0. 6. 7. 5. 8. 8. 1. 3. 5. 5. 10.
      42. 16. 4. 1. 7. 14. 5. 1. 2. 3. 1. 2. 1. 1. 22. 21. 3. 2. 5. 3.
      91. 5. 3. 3. 3. 3. 4. 2. 3. 1. 0. 5. 4. 4. 14. 6. 2. 0. 11. 4. 8.
      14. 20. 0. 4. 2. 5. 5. 5. 3. 0. 2. 5. 2. 4. 8. 3. 5. 4. 2. 2. 4.
      2. 4. 5. 3. 4. 5. 4. 6. 1. 8. 2. 15. 114. 18. 13. 14. 26. 496. 8.
      3. 4. 1. 0. 1. 7. 1. 6. 3. 5. 13. 6. 7. 10. 3. 4. 35. 5. 8. 11.
      10. 6. 21. 20. 12. 14. 9. 1. 4. 33. 13. 19. 30. 19. 12. 14. 2. 9.
      22. 12. 7. 3. 11. 10. 26. 0. 6. 21. 9. 10. 1. 112. 109. 11. 7. 8.
      20. 456. 7. 9. 6. 8. 1. 0. 10. 12. 12. 1. 7. 20. 11. 17. 20. 2. 4.
      31. 12. 16. 41. 36. 8. 13. 17. 6. 9. 10. 4. 1. 38. 9. 6. 13. 17.
      3. 16. 2. 3. 3. 5. 4. 7. 9. 1. 15. 15. 4. 46. 11. 13. 5. 113. 64.
      5. 8. 3. 10. 279. 3. 4. 10. 4. 0. 2. 9. 2. 7. 4. 5. 12. 6. 3. 6.
      5. 6. 11. 3. 9. 17. 10. 5. 5. 10. 5. 5. 1. 1. 3. 9. 8. 7. 10. 12.
      1. 11. 1. 6. 2. 7. 8. 4. 3. 12. 8. 5. 5. 10. 2. 15. 5. 63. 24. 1.
      5. 1. 1. 109. 5. 6. 4. 7. 5. 34. 4. 3. 3. 11. 11. 7. 4. 5. 3. 5.
      3. 12. 8. 17. 15. 8. 1. 9. 2. 2. 1. 0. 4. 3. 5. 2. 3. 1. 4. 1. 4.
      5. 3. 1. 1. 1. 38. 10. 1. 5. 15. 3. 5. 8. 6. 3. 16.</_>
    <_>
      43. 3. 10. 2. 18. 160. 5. 5. 3. 10. 9. 8. 18. 7. 7. 10. 14. 12. 4.
      5. 6. 8. 10. 15. 5. 10. 12. 14. 11. 3. 4. 6. 2. 1. 4. 5. 12. 3. 2.
      1. 0. 2. 5. 9. 2. 3. 2. 3. 20. 9. 2. 5. 16. 10. 11. 11. 7. 4. 42.
      34. 5. 7. 3. 3. 172. 2. 4. 3. 7. 6. 6. 7. 4. 4. 3. 8. 4. 3. 4. 1.
      6. 5. 11. 3. 5. 4. 5. 1. 2. 7. 10. 6. 7. 1. 5. 1. 10. 11. 7. 9. 1.
      7. 7. 12. 5. 8. 3. 2. 7. 5. 8. 2. 4. 1. 3. 4. 5. 39. 16. 3. 4. 1.
      1. 63. 2. 3. 3. 3. 1. 0. 2. 2. 3. 0. 2. 3. 3. 6. 4. 1. 1. 6. 2. 5.
      6. 12. 5. 4. 2. 3. 7. 4. 2. 1. 3. 5. 4. 8. 12. 1. 0. 2. 1. 2. 1.
      1. 3. 4. 2. 2. 3. 1. 4. 3. 7. 2. 7. 36. 4. 3. 3. 9. 166. 2. 1. 1.
      5. 2. 1. 2. 6. 8. 7. 7. 7. 4. 5. 3. 6. 2. 9. 5. 6. 4. 4. 3. 5. 8.
      4. 5. 1. 1. 2. 5. 10. 16. 5. 3. 1. 4. 10. 21. 6. 3. 5. 3. 10. 5.
      8. 4. 6. 10. 2. 4. 8. 29. 30. 2. 1. 4. 2. 138. 1. 7. 6. 0. 3. 4.
      8. 1. 1. 2. 5. 11. 10. 3. 4. 1. 1. 7. 8. 23. 20. 8. 1. 3. 7. 2. 1.
      5. 9. 3. 3. 6. 5. 2. 8. 4. 0. 13. 10. 3. 7. 2. 19. 11. 5. 2. 19.
      9. 6. 9. 8. 5. 27. 52. 3. 8. 6. 13. 210. 1. 2. 7. 3. 1. 1. 5. 5.
      5. 4. 1. 10. 13. 5. 5. 8. 5. 16. 6. 12. 14. 10. 5. 5. 14. 8. 3. 3.
      2. 0. 9. 6. 6. 8. 15. 1. 1. 5. 5. 6. 6. 5. 5. 7. 8. 8. 9. 9. 10.
      9. 17. 5. 49. 43. 3. 10. 2. 18. 160. 5. 5. 3. 10. 9. 8. 18. 7. 7.
      10. 14. 12. 4. 5. 6. 8. 10. 15. 5. 10. 12. 14. 11. 3. 4. 6. 2. 1.
      4. 5. 12. 3. 2. 1. 0. 2. 5. 9. 2. 3. 2. 3. 20. 9. 2. 5. 16. 10.
      11. 11. 7. 4. 42.</_>
    <_>
      31. 5. 1. 2. 5. 163. 5. 5. 5. 7. 7. 9. 12. 6. 5. 5. 10. 8. 8. 12.
      9. 2. 5. 10. 7. 13. 15. 16. 5. 9. 6. 3. 4. 4. 4. 3. 4. 7. 5. 4. 1.
      2. 5. 7. 8. 1. 3. 3. 16. 7. 3. 5. 8. 7. 8. 6. 7. 4. 29. 27. 2. 2.
      6. 4. 151. 3. 10. 4. 5. 12. 10. 0. 3. 1. 6. 9. 10. 4. 2. 2. 0. 4.
      16. 7. 8. 9. 6. 1. 4. 10. 1. 7. 5. 1. 5. 4. 7. 17. 11. 6. 5. 9. 4.
      8. 9. 5. 2. 4. 5. 6. 8. 5. 8. 6. 3. 10. 2. 28. 18. 2. 3. 4. 4. 75.
      2. 5. 2. 0. 2. 1. 2. 5. 2. 5. 2. 4. 2. 6. 6. 3. 1. 6. 1. 6. 9. 12.
      1. 2. 4. 2. 6. 11. 1. 1. 1. 3. 1. 3. 13. 4. 2. 2. 1. 0. 3. 2. 0.
      2. 5. 1. 6. 0. 3. 2. 0. 3. 13. 39. 7. 2. 2. 7. 175. 3. 4. 5. 2. 3.
      2. 7. 2. 2. 5. 5. 8. 3. 3. 4. 6. 2. 7. 3. 6. 8. 8. 5. 3. 6. 4. 5.
      0. 2. 1. 5. 9. 13. 19. 5. 4. 3. 3. 7. 11. 4. 1. 3. 2. 6. 12. 3. 4.
      6. 4. 8. 2. 35. 34. 6. 3. 2. 5. 158. 0. 5. 5. 3. 4. 3. 8. 3. 1. 1.
      3. 9. 7. 8. 8. 1. 2. 2. 10. 20. 25. 9. 1. 1. 3. 2. 3. 6. 4. 2. 3.
      6. 6. 4. 7. 0. 1. 3. 7. 5. 4. 4. 11. 7. 4. 7. 16. 7. 4. 5. 9. 6.
      32. 54. 11. 6. 2. 7. 234. 3. 0. 3. 3. 0. 0. 8. 4. 2. 3. 3. 7. 3.
      4. 0. 0. 4. 9. 11. 3. 6. 9. 2. 8. 12. 3. 3. 0. 2. 1. 6. 5. 11. 3.
      8. 4. 6. 3. 11. 7. 6. 2. 8. 10. 2. 18. 7. 8. 4. 3. 11. 8. 46. 31.
      5. 1. 2. 5. 163. 5. 5. 5. 7. 7. 9. 12. 6. 5. 5. 10. 8. 8. 12. 9.
      2. 5. 10. 7. 13. 15. 16. 5. 9. 6. 3. 4. 4. 4. 3. 4. 7. 5. 4. 1. 2.
      5. 7. 8. 1. 3. 3. 16. 7. 3. 5. 8. 7. 8. 6. 7. 4. 29.</_>
    <_>
      26. 4. 2. 0. 5. 111. 2. 5. 3. 8. 10. 20. 7. 5. 7. 19. 24. 4. 6. 7.
      6. 8. 5. 11. 10. 14. 15. 15. 4. 4. 1. 2. 0. 1. 1. 3. 5. 3. 0. 0.
      1. 0. 3. 7. 1. 0. 0. 1. 40. 9. 0. 0. 15. 8. 0. 5. 3. 5. 25. 37.
      13. 4. 2. 5. 127. 9. 6. 3. 0. 11. 18. 7. 1. 5. 19. 21. 5. 0. 0. 2.
      3. 3. 4. 1. 1. 0. 2. 2. 3. 10. 3. 3. 5. 8. 7. 5. 8. 8. 6. 8. 3. 8.
      5. 38. 12. 6. 5. 3. 14. 6. 6. 1. 1. 4. 1. 2. 4. 25. 27. 0. 1. 3.
      3. 79. 0. 0. 3. 0. 2. 1. 2. 0. 1. 2. 3. 3. 6. 10. 4. 0. 0. 7. 6.
      12. 14. 16. 2. 2. 0. 3. 2. 3. 0. 1. 0. 3. 4. 6. 4. 1. 1. 1. 0. 3.
      1. 1. 2. 3. 1. 4. 9. 6. 6. 7. 3. 3. 12. 73. 11. 3. 1. 5. 298. 3.
      5. 3. 3. 0. 1. 11. 4. 0. 0. 3. 13. 5. 4. 2. 1. 0. 24. 13. 11. 9.
      8. 3. 4. 21. 10. 7. 8. 1. 1. 6. 14. 19. 16. 9. 5. 7. 7. 19. 13.
      14. 6. 10. 14. 13. 19. 1. 7. 26. 7. 15. 6. 69. 64. 9. 2. 0. 5.
      305. 2. 2. 4. 0. 1. 1. 14. 7. 4. 0. 1. 20. 20. 15. 6. 1. 2. 18.
      17. 12. 27. 15. 5. 5. 9. 7. 6. 18. 1. 1. 7. 5. 5. 9. 15. 1. 3. 3.
      8. 1. 4. 6. 14. 9. 2. 9. 16. 13. 14. 17. 20. 12. 72. 71. 6. 4. 2.
      15. 261. 4. 4. 10. 7. 2. 1. 7. 4. 7. 3. 7. 13. 5. 12. 11. 3. 5.
      19. 4. 5. 17. 24. 8. 18. 3. 2. 3. 0. 4. 4. 13. 3. 2. 2. 5. 2. 7.
      2. 2. 3. 2. 5. 6. 5. 5. 4. 6. 11. 9. 5. 5. 10. 67. 26. 4. 2. 0. 5.
      111. 2. 5. 3. 8. 10. 20. 7. 5. 7. 19. 24. 4. 6. 7. 6. 8. 5. 11.
      10. 14. 15. 15. 4. 4. 1. 2. 0. 1. 1. 3. 5. 3. 0. 0. 1. 0. 3. 7. 1.
      0. 0. 1. 40. 9. 0. 0. 15. 8. 0. 5. 3. 5. 25.</_>
    <_>
      24. 4. 2. 1. 2. 93. 1. 3. 3. 7. 16. 20. 5. 6. 7. 16. 20. 6. 7. 14.
      4. 7. 5. 6. 7. 15. 16. 15. 5. 6. 1. 2. 0. 0. 0. 4. 2. 4. 1. 0. 0.
      1. 4. 4. 2. 0. 0. 1. 35. 10. 1. 0. 10. 5. 4. 7. 2. 2. 17. 36. 4.
      4. 5. 6. 139. 5. 3. 5. 2. 15. 10. 1. 2. 7. 26. 21. 3. 1. 1. 2. 0.
      5. 13. 2. 0. 0. 2. 0. 5. 9. 4. 2. 8. 6. 9. 4. 5. 11. 4. 10. 4. 12.
      3. 43. 11. 8. 1. 2. 8. 3. 2. 0. 0. 1. 0. 3. 6. 25. 11. 3. 5. 2. 4.
      51. 0. 3. 1. 4. 0. 1. 5. 6. 1. 0. 3. 5. 6. 14. 7. 2. 1. 7. 6. 10.
      34. 19. 2. 0. 1. 3. 5. 2. 1. 0. 0. 4. 2. 10. 11. 1. 1. 1. 2. 1. 2.
      4. 4. 2. 4. 0. 8. 8. 2. 8. 1. 1. 10. 78. 8. 8. 5. 10. 323. 4. 0.
      3. 1. 0. 0. 7. 3. 0. 2. 2. 10. 3. 7. 3. 1. 0. 21. 8. 9. 4. 11. 0.
      1. 16. 10. 6. 3. 0. 1. 7. 11. 17. 24. 17. 2. 9. 5. 12. 17. 10. 6.
      15. 15. 11. 23. 1. 5. 24. 7. 11. 4. 70. 69. 6. 7. 4. 3. 317. 0. 4.
      8. 1. 0. 2. 8. 5. 3. 0. 4. 18. 12. 19. 7. 1. 0. 12. 11. 27. 23.
      11. 1. 6. 16. 4. 2. 14. 1. 1. 3. 5. 3. 3. 7. 5. 1. 7. 4. 1. 5. 5.
      10. 11. 6. 11. 18. 17. 17. 20. 26. 10. 69. 57. 4. 3. 1. 20. 247.
      3. 4. 12. 8. 1. 3. 3. 3. 7. 5. 7. 14. 8. 14. 10. 4. 3. 18. 7. 9.
      20. 24. 6. 15. 8. 3. 3. 1. 1. 5. 12. 1. 1. 4. 8. 0. 3. 7. 0. 2. 3.
      5. 3. 9. 3. 4. 6. 4. 19. 10. 10. 6. 54. 24. 4. 2. 1. 2. 93. 1. 3.
      3. 7. 16. 20. 5. 6. 7. 16. 20. 6. 7. 14. 4. 7. 5. 6. 7. 15. 16.
      15. 5. 6. 1. 2. 0. 0. 0. 4. 2. 4. 1. 0. 0. 1. 4. 4. 2. 0. 0. 1.
      35. 10. 1. 0. 10. 5. 4. 7. 2. 2. 17.</_>
    <_>
      23. 4. 1. 3. 6. 69. 4. 10. 2. 7. 5. 46. 7. 3. 7. 1. 9. 3. 10. 2.
      5. 8. 7. 1. 2. 28. 9. 9. 6. 3. 0. 3. 2. 6. 3. 4. 4. 5. 5. 1. 5. 1.
      2. 14. 5. 0. 0. 1. 48. 17. 4. 1. 22. 4. 2. 4. 3. 6. 12. 25. 4. 2.
      4. 5. 80. 4. 4. 3. 4. 2. 2. 6. 2. 17. 49. 8. 1. 5. 1. 7. 18. 4. 6.
      2. 5. 0. 5. 3. 0. 4. 0. 4. 4. 6. 5. 1. 7. 20. 6. 4. 5. 6. 7. 50.
      16. 4. 2. 7. 10. 4. 3. 1. 2. 4. 2. 3. 3. 16. 27. 2. 5. 5. 4. 123.
      1. 5. 8. 2. 1. 5. 4. 3. 5. 0. 5. 5. 5. 13. 7. 0. 1. 8. 4. 6. 10.
      14. 4. 4. 3. 5. 7. 8. 6. 1. 4. 2. 10. 5. 12. 4. 4. 4. 2. 6. 4. 5.
      2. 4. 3. 1. 4. 0. 8. 3. 9. 2. 23. 111. 13. 13. 6. 34. 466. 6. 4.
      11. 4. 1. 2. 6. 11. 9. 2. 7. 15. 5. 21. 32. 0. 4. 29. 11. 9. 25.
      36. 10. 15. 17. 10. 17. 14. 6. 3. 31. 3. 10. 34. 30. 6. 15. 2. 9.
      15. 6. 2. 6. 3. 8. 19. 2. 8. 24. 4. 20. 11. 107. 106. 17. 12. 7.
      18. 476. 6. 5. 16. 4. 4. 4. 17. 5. 9. 3. 8. 17. 13. 10. 10. 4. 6.
      19. 14. 18. 42. 24. 6. 8. 13. 11. 10. 13. 3. 6. 24. 9. 7. 10. 16.
      10. 12. 5. 7. 13. 13. 11. 6. 3. 11. 18. 23. 12. 22. 9. 16. 14.
      125. 33. 3. 4. 1. 9. 156. 6. 9. 8. 4. 6. 10. 4. 2. 6. 10. 9. 7. 2.
      9. 3. 1. 2. 20. 7. 28. 18. 4. 5. 7. 5. 1. 6. 9. 7. 3. 6. 7. 8. 3.
      3. 3. 4. 6. 11. 1. 6. 0. 32. 9. 8. 5. 26. 9. 6. 6. 9. 2. 33. 23.
      4. 1. 3. 6. 69. 4. 10. 2. 7. 5. 46. 7. 3. 7. 1. 9. 3. 10. 2. 5. 8.
      7. 1. 2. 28. 9. 9. 6. 3. 0. 3. 2. 6. 3. 4. 4. 5. 5. 1. 5. 1. 2.
      14. 5. 0. 0. 1. 48. 17. 4. 1. 22. 4. 2. 4. 3. 6. 12.</_>
    <_>
      27. 2. 1. 2. 5. 100. 6. 9. 5. 5. 3. 50. 3. 2. 4. 5. 12. 3. 3. 7.
      3. 3. 3. 13. 8. 20. 20. 6. 6. 2. 1. 1. 1. 3. 3. 6. 2. 4. 1. 0. 4.
      0. 3. 8. 1. 0. 0. 2. 46. 13. 0. 3. 18. 5. 7. 3. 5. 8. 20. 30. 3.
      3. 2. 4. 115. 2. 2. 8. 6. 5. 0. 4. 8. 16. 39. 8. 4. 4. 3. 8. 11.
      4. 5. 0. 7. 0. 8. 3. 4. 3. 4. 0. 4. 4. 4. 5. 8. 12. 8. 6. 2. 4.
      10. 50. 14. 6. 4. 8. 16. 6. 5. 1. 1. 1. 0. 6. 4. 17. 23. 3. 5. 4.
      8. 114. 1. 8. 3. 4. 1. 3. 2. 2. 2. 2. 3. 5. 7. 15. 9. 1. 0. 9. 6.
      9. 16. 19. 4. 2. 4. 5. 2. 4. 5. 4. 3. 7. 4. 7. 4. 4. 3. 2. 5. 3.
      4. 5. 4. 5. 2. 7. 5. 2. 4. 3. 5. 4. 26. 90. 11. 12. 4. 24. 385. 3.
      6. 6. 2. 2. 2. 10. 5. 4. 2. 4. 12. 7. 9. 16. 6. 8. 31. 6. 6. 7.
      14. 6. 10. 13. 9. 18. 14. 1. 1. 19. 6. 15. 24. 25. 1. 6. 4. 5. 6.
      3. 13. 1. 9. 5. 16. 2. 3. 20. 6. 25. 9. 91. 95. 12. 7. 6. 16. 398.
      1. 5. 12. 4. 1. 2. 10. 7. 8. 2. 5. 17. 8. 6. 6. 1. 3. 22. 7. 14.
      32. 21. 12. 13. 11. 5. 8. 5. 2. 1. 12. 7. 3. 8. 10. 7. 4. 3. 2. 5.
      6. 7. 9. 7. 1. 10. 12. 8. 22. 8. 29. 11. 104. 59. 6. 4. 2. 7. 253.
      3. 1. 10. 3. 2. 5. 14. 7. 4. 4. 2. 13. 10. 4. 5. 7. 8. 14. 6. 18.
      25. 15. 7. 11. 5. 5. 1. 2. 1. 4. 11. 10. 5. 9. 10. 2. 2. 4. 6. 1.
      1. 3. 6. 8. 4. 8. 9. 11. 14. 15. 10. 11. 49. 27. 2. 1. 2. 5. 100.
      6. 9. 5. 5. 3. 50. 3. 2. 4. 5. 12. 3. 3. 7. 3. 3. 3. 13. 8. 20.
      20. 6. 6. 2. 1. 1. 1. 3. 3. 6. 2. 4. 1. 0. 4. 0. 3. 8. 1. 0. 0. 2.
      46. 13. 0. 3. 18. 5. 7. 3. 5. 8. 20.</_>
    <_>
      18. 4. 3. 5. 3. 68. 2. 8. 0. 6. 4. 49. 8. 3. 5. 2. 10. 4. 5. 8. 3.
      4. 7. 10. 7. 29. 6. 6. 3. 4. 4. 3. 2. 4. 6. 6. 1. 5. 3. 1. 1. 4.
      2. 4. 1. 0. 0. 3. 51. 8. 0. 0. 18. 5. 2. 8. 5. 7. 14. 28. 6. 7. 2.
      5. 113. 3. 1. 5. 8. 9. 3. 5. 1. 14. 40. 15. 4. 6. 3. 4. 17. 4. 9.
      3. 2. 1. 6. 1. 7. 5. 0. 3. 1. 2. 6. 3. 6. 12. 9. 3. 3. 4. 6. 57.
      12. 7. 3. 3. 12. 5. 2. 1. 2. 2. 1. 2. 6. 19. 27. 5. 11. 1. 5. 124.
      2. 2. 3. 1. 1. 2. 7. 7. 4. 1. 1. 6. 9. 14. 14. 1. 2. 6. 6. 5. 32.
      15. 4. 2. 3. 2. 5. 8. 1. 2. 8. 4. 3. 5. 7. 1. 7. 3. 4. 1. 3. 2. 4.
      4. 2. 2. 4. 2. 5. 6. 9. 7. 22. 79. 5. 8. 6. 18. 338. 6. 3. 6. 6.
      1. 1. 10. 7. 6. 3. 3. 11. 9. 10. 12. 5. 6. 19. 5. 8. 12. 8. 3. 9.
      13. 9. 8. 3. 0. 3. 19. 4. 13. 39. 8. 3. 8. 2. 7. 16. 12. 6. 1. 5.
      7. 17. 2. 7. 15. 9. 19. 6. 68. 77. 8. 7. 2. 15. 319. 5. 3. 6. 8.
      2. 2. 7. 8. 5. 4. 5. 15. 10. 17. 9. 3. 5. 22. 6. 13. 34. 18. 3. 3.
      4. 8. 12. 6. 1. 5. 13. 7. 11. 12. 13. 5. 7. 6. 3. 4. 6. 6. 7. 8.
      3. 11. 16. 12. 22. 11. 11. 4. 77. 65. 8. 6. 1. 14. 284. 6. 2. 5.
      1. 2. 3. 11. 5. 4. 4. 6. 6. 4. 14. 12. 3. 3. 14. 7. 6. 13. 19. 9.
      9. 12. 10. 5. 2. 1. 4. 6. 12. 5. 2. 10. 4. 5. 7. 7. 4. 8. 9. 3. 7.
      10. 19. 6. 5. 15. 2. 9. 5. 74. 18. 4. 3. 5. 3. 68. 2. 8. 0. 6. 4.
      49. 8. 3. 5. 2. 10. 4. 5. 8. 3. 4. 7. 10. 7. 29. 6. 6. 3. 4. 4. 3.
      2. 4. 6. 6. 1. 5. 3. 1. 1. 4. 2. 4. 1. 0. 0. 3. 51. 8. 0. 0. 18.
      5. 2. 8. 5. 7. 14.</_>
    <_>
      23. 2. 1. 1. 6. 90. 5. 5. 2. 11. 16. 9. 7. 2. 6. 23. 21. 2. 5. 12.
      7. 6. 5. 7. 11. 7. 14. 15. 5. 8. 1. 2. 2. 2. 4. 1. 4. 5. 8. 2. 3.
      1. 0. 11. 12. 2. 1. 2. 17. 11. 4. 1. 4. 7. 8. 8. 3. 2. 22. 23. 2.
      2. 5. 9. 95. 6. 7. 3. 2. 11. 19. 5. 1. 4. 6. 12. 6. 1. 0. 0. 2. 3.
      6. 9. 3. 3. 1. 3. 1. 2. 3. 4. 6. 15. 4. 11. 5. 3. 1. 6. 4. 2. 18.
      12. 4. 3. 4. 20. 24. 4. 5. 0. 3. 5. 2. 4. 0. 17. 22. 1. 3. 4. 3.
      89. 2. 3. 4. 0. 0. 1. 5. 7. 6. 3. 2. 6. 7. 12. 18. 1. 1. 8. 4. 5.
      9. 10. 7. 5. 2. 2. 5. 4. 1. 2. 4. 3. 4. 1. 5. 3. 4. 3. 2. 3. 2. 4.
      3. 5. 2. 6. 5. 3. 5. 4. 5. 2. 15. 63. 10. 8. 5. 5. 305. 2. 10. 4.
      1. 3. 3. 7. 3. 4. 2. 5. 9. 3. 3. 2. 1. 3. 18. 10. 7. 7. 5. 6. 6.
      15. 21. 11. 4. 2. 0. 7. 18. 34. 59. 17. 7. 7. 9. 18. 31. 19. 11.
      8. 13. 14. 26. 2. 2. 15. 3. 9. 9. 104. 53. 6. 4. 0. 8. 264. 2. 4.
      6. 5. 2. 2. 7. 15. 8. 0. 2. 17. 20. 23. 13. 1. 3. 19. 23. 40. 78.
      32. 6. 13. 8. 4. 0. 2. 3. 3. 6. 4. 6. 5. 4. 3. 4. 5. 4. 2. 3. 0.
      28. 11. 5. 5. 38. 20. 12. 24. 27. 11. 92. 58. 11. 8. 7. 12. 266.
      2. 3. 11. 7. 2. 2. 12. 3. 6. 9. 5. 7. 8. 14. 10. 9. 5. 14. 3. 8.
      27. 19. 11. 9. 8. 1. 2. 5. 5. 4. 12. 2. 4. 3. 10. 4. 9. 0. 3. 3.
      3. 9. 4. 6. 4. 6. 7. 1. 12. 8. 18. 6. 65. 23. 2. 1. 1. 6. 90. 5.
      5. 2. 11. 16. 9. 7. 2. 6. 23. 21. 2. 5. 12. 7. 6. 5. 7. 11. 7. 14.
      15. 5. 8. 1. 2. 2. 2. 4. 1. 4. 5. 8. 2. 3. 1. 0. 11. 12. 2. 1. 2.
      17. 11. 4. 1. 4. 7. 8. 8. 3. 2. 22.</_>
    <_>
      29. 4. 1. 1. 4. 123. 2. 5. 4. 7. 4. 3. 7. 9. 10. 29. 13. 10. 2. 6.
      3. 14. 2. 11. 7. 8. 9. 13. 5. 5. 4. 0. 1. 1. 1. 1. 8. 3. 3. 1. 2.
      0. 2. 11. 10. 2. 0. 0. 19. 22. 0. 2. 10. 6. 1. 4. 13. 6. 23. 36.
      6. 3. 1. 7. 135. 6. 6. 2. 3. 13. 23. 3. 3. 3. 11. 18. 1. 1. 0. 0.
      2. 3. 3. 5. 4. 0. 2. 1. 3. 9. 4. 3. 6. 5. 4. 3. 6. 14. 5. 7. 3. 9.
      14. 39. 6. 5. 6. 3. 28. 2. 10. 1. 1. 4. 1. 4. 3. 20. 16. 1. 0. 1.
      2. 66. 1. 0. 1. 0. 0. 0. 3. 3. 2. 0. 1. 1. 7. 13. 4. 1. 0. 5. 4.
      10. 33. 22. 0. 0. 3. 7. 5. 0. 0. 0. 0. 4. 2. 7. 7. 2. 2. 0. 2. 2.
      3. 2. 3. 3. 0. 4. 7. 2. 3. 2. 6. 1. 12. 36. 7. 3. 2. 8. 176. 0. 2.
      7. 2. 1. 0. 5. 3. 4. 6. 3. 5. 4. 5. 2. 6. 4. 12. 8. 9. 7. 7. 7. 5.
      7. 5. 3. 1. 0. 0. 2. 9. 6. 4. 6. 0. 2. 6. 1. 4. 5. 2. 10. 6. 5.
      10. 11. 6. 7. 5. 14. 4. 38. 33. 4. 3. 2. 5. 147. 0. 4. 6. 0. 0. 3.
      5. 3. 0. 0. 3. 8. 6. 3. 2. 0. 1. 17. 14. 18. 9. 6. 1. 1. 3. 7. 5.
      8. 4. 0. 5. 5. 8. 6. 14. 2. 2. 15. 8. 4. 3. 1. 13. 16. 5. 3. 12.
      12. 9. 5. 13. 4. 29. 65. 9. 8. 1. 9. 247. 1. 2. 8. 7. 0. 1. 5. 7.
      9. 4. 9. 14. 10. 15. 6. 5. 9. 17. 3. 11. 20. 22. 8. 3. 2. 1. 1. 5.
      2. 6. 5. 5. 3. 9. 10. 5. 7. 3. 0. 3. 2. 9. 9. 6. 3. 9. 10. 10. 12.
      15. 7. 8. 54. 29. 4. 1. 1. 4. 123. 2. 5. 4. 7. 4. 3. 7. 9. 10. 29.
      13. 10. 2. 6. 3. 14. 2. 11. 7. 8. 9. 13. 5. 5. 4. 0. 1. 1. 1. 1.
      8. 3. 3. 1. 2. 0. 2. 11. 10. 2. 0. 0. 19. 22. 0. 2. 10. 6. 1. 4.
      13. 6. 23.</_>
    <_>
      23. 1. 2. 0. 8. 106. 5. 2. 5. 4. 11. 29. 3. 3. 3. 6. 21. 3. 5. 4.
      5. 6. 5. 10. 8. 15. 5. 8. 4. 9. 4. 2. 1. 2. 1. 2. 1. 2. 2. 0. 5.
      0. 0. 9. 2. 0. 0. 1. 41. 11. 0. 1. 11. 4. 3. 5. 2. 5. 26. 32. 5.
      6. 6. 9. 138. 5. 4. 3. 3. 7. 13. 4. 0. 6. 24. 15. 4. 2. 1. 5. 4.
      1. 5. 5. 3. 0. 1. 0. 2. 7. 9. 2. 6. 4. 6. 5. 2. 7. 8. 9. 3. 6. 4.
      48. 8. 7. 12. 3. 10. 3. 5. 2. 0. 2. 2. 6. 1. 29. 14. 0. 1. 1. 1.
      61. 0. 0. 3. 0. 0. 0. 3. 2. 2. 0. 1. 5. 10. 19. 8. 1. 0. 2. 14.
      10. 34. 24. 5. 0. 0. 5. 7. 2. 0. 0. 3. 4. 2. 10. 13. 0. 0. 2. 0.
      1. 2. 0. 4. 4. 1. 2. 4. 5. 4. 10. 6. 0. 10. 126. 18. 9. 9. 16.
      506. 5. 5. 9. 6. 4. 0. 13. 5. 4. 1. 3. 15. 4. 6. 4. 1. 3. 17. 11.
      6. 3. 12. 3. 13. 18. 14. 15. 1. 3. 1. 19. 19. 20. 52. 23. 4. 13.
      6. 11. 26. 13. 12. 5. 5. 18. 28. 4. 10. 24. 6. 12. 5. 136. 102.
      13. 5. 7. 13. 475. 3. 5. 16. 3. 1. 4. 18. 10. 4. 4. 7. 21. 14. 11.
      13. 1. 4. 20. 21. 35. 46. 22. 4. 18. 12. 7. 10. 13. 7. 3. 15. 11.
      11. 4. 10. 5. 16. 3. 3. 2. 9. 8. 20. 4. 4. 17. 41. 18. 16. 12. 23.
      13. 123. 66. 9. 5. 4. 10. 311. 5. 2. 8. 11. 4. 5. 10. 5. 8. 2. 5.
      9. 8. 11. 5. 2. 7. 20. 18. 21. 24. 7. 2. 10. 11. 3. 2. 6. 3. 5.
      16. 4. 10. 3. 9. 4. 6. 3. 5. 7. 5. 3. 8. 9. 5. 6. 14. 13. 10. 12.
      19. 10. 72. 23. 1. 2. 0. 8. 106. 5. 2. 5. 4. 11. 29. 3. 3. 3. 6.
      21. 3. 5. 4. 5. 6. 5. 10. 8. 15. 5. 8. 4. 9. 4. 2. 1. 2. 1. 2. 1.
      2. 2. 0. 5. 0. 0. 9. 2. 0. 0. 1. 41. 11. 0. 1. 11. 4. 3. 5. 2. 5.
      26.</_></support_vectors>
  <decision_functions>
    <_>
      <sv_count>13</sv_count>
      <rho>2.3076923076923078e-001</rho>
      <alpha>
        1.2307692170143127e+000 1.2307692170143127e+000
        1.2307692170143127e+000 1.2307692170143127e+000
        1.2307692170143127e+000 -7.6923072338104248e-001
        -7.6923072338104248e-001 -7.6923078298568726e-001
        -7.6923078298568726e-001 -7.6923078298568726e-001
        -7.6923078298568726e-001 -7.6923078298568726e-001
        -7.6923072338104248e-001</alpha>
      <index>
        0 1 2 3 4 5 6 7 8 9 10 11 12</index></_>
    <_>
      <sv_count>14</sv_count>
      <rho>2.8571428571428570e-001</rho>
      <alpha>
        1.2857143282890320e+000 1.2857143282890320e+000
        1.2857142686843872e+000 1.2857142686843872e+000
        1.2857142686843872e+000 -7.1428573131561279e-001
        -7.1428573131561279e-001 -7.1428573131561279e-001
        -7.1428573131561279e-001 -7.1428573131561279e-001
        -7.1428573131561279e-001 -7.1428573131561279e-001
        -7.1428567171096802e-001 -7.1428567171096802e-001</alpha>
      <index>
        0 1 2 3 4 13 14 15 16 17 18 19 20 21</index></_>
    <_>
      <sv_count>18</sv_count>
      <rho>4.4444444444444442e-001</rho>
      <alpha>
        1.4444444775581360e+000 1.4444444775581360e+000
        1.4444444775581360e+000 1.4444444775581360e+000
        1.4444444775581360e+000 -5.5555552244186401e-001
        -5.5555558204650879e-001 -5.5555558204650879e-001
        -5.5555558204650879e-001 -5.5555558204650879e-001
        -5.5555558204650879e-001 -5.5555558204650879e-001
        -5.5555558204650879e-001 -5.5555558204650879e-001
        -5.5555558204650879e-001 -5.5555558204650879e-001
        -5.5555552244186401e-001 -5.5555552244186401e-001</alpha>
      <index>
        0 1 2 3 4 22 23 24 25 26 27 28 29 30 31 32 33 34</index></_>
    <_>
      <sv_count>17</sv_count>
      <rho>4.1176470588235292e-001</rho>
      <alpha>
        1.4117646813392639e+000 1.4117646813392639e+000
        1.4117646813392639e+000 1.4117646813392639e+000
        1.4117646813392639e+000 -5.8823525905609131e-001
        -5.8823525905609131e-001 -5.8823525905609131e-001
        -5.8823525905609131e-001 -5.8823531866073608e-001
        -5.8823531866073608e-001 -5.8823531866073608e-001
        -5.8823531866073608e-001 -5.8823531866073608e-001
        -5.8823525905609131e-001 -5.8823525905609131e-001
        -5.8823525905609131e-001</alpha>
      <index>
        0 1 2 3 4 35 36 37 38 39 40 41 42 43 44 45 46</index></_>
    <_>
      <sv_count>12</sv_count>
      <rho>1.6666666666666666e-001</rho>
      <alpha>
        1.1666666865348816e+000 1.1666666865348816e+000
        1.1666666865348816e+000 1.1666666865348816e+000
        1.1666666865348816e+000 -8.3333331346511841e-001
        -8.3333337306976318e-001 -8.3333337306976318e-001
        -8.3333337306976318e-001 -8.3333337306976318e-001
        -8.3333331346511841e-001 -8.3333331346511841e-001</alpha>
      <index>
        0 1 2 3 4 47 48 49 50 51 52 53</index></_>
    <_>
      <sv_count>8</sv_count>
      <rho>-2.5000000000000000e-001</rho>
      <alpha>
        7.5000000000000000e-001 7.5000000000000000e-001
        7.5000000000000000e-001 7.5000000000000000e-001
        7.5000000000000000e-001 -1.2500000000000000e+000
        -1.2500000000000000e+000 -1.2500000000000000e+000</alpha>
      <index>
        0 1 2 3 4 54 55 56</index></_>
    <_>
      <sv_count>17</sv_count>
      <rho>5.8823529411764705e-002</rho>
      <alpha>
        1.0588235259056091e+000 1.0588235259056091e+000
        1.0588235259056091e+000 1.0588235259056091e+000
        1.0588235259056091e+000 1.0588235259056091e+000
        1.0588235259056091e+000 1.0588235259056091e+000
        -9.4117647409439087e-001 -9.4117647409439087e-001
        -9.4117647409439087e-001 -9.4117647409439087e-001
        -9.4117647409439087e-001 -9.4117647409439087e-001
        -9.4117647409439087e-001 -9.4117647409439087e-001
        -9.4117641448974609e-001</alpha>
      <index>
        5 6 7 8 9 10 11 12 13 14 15 16 17 18 19 20 21</index></_>
    <_>
      <sv_count>21</sv_count>
      <rho>2.3809523809523808e-001</rho>
      <alpha>
        1.2380952239036560e+000 1.2380952239036560e+000
        1.2380952239036560e+000 1.2380952239036560e+000
        1.2380952239036560e+000 1.2380952239036560e+000
        1.2380952239036560e+000 1.2380952239036560e+000
        -7.6190477609634399e-001 -7.6190477609634399e-001
        -7.6190477609634399e-001 -7.6190477609634399e-001
        -7.6190477609634399e-001 -7.6190477609634399e-001
        -7.6190477609634399e-001 -7.6190477609634399e-001
        -7.6190471649169922e-001 -7.6190471649169922e-001
        -7.6190471649169922e-001 -7.6190471649169922e-001
        -7.6190471649169922e-001</alpha>
      <index>
        5 6 7 8 9 10 11 12 22 23 24 25 26 27 28 29 30 31 32 33 34</index></_>
    <_>
      <sv_count>20</sv_count>
      <rho>2.0000000000000001e-001</rho>
      <alpha>
        1.1999999880790710e+000 1.1999999880790710e+000
        1.1999999880790710e+000 1.1999999880790710e+000
        1.1999999880790710e+000 1.1999999880790710e+000
        1.1999999880790710e+000 1.1999999880790710e+000
        -8.0000001192092896e-001 -8.0000001192092896e-001
        -8.0000001192092896e-001 -8.0000001192092896e-001
        -8.0000001192092896e-001 -8.0000001192092896e-001
        -8.0000001192092896e-001 -8.0000001192092896e-001
        -7.9999995231628418e-001 -7.9999995231628418e-001
        -7.9999995231628418e-001 -7.9999995231628418e-001</alpha>
      <index>
        5 6 7 8 9 10 11 12 35 36 37 38 39 40 41 42 43 44 45 46</index></_>
    <_>
      <sv_count>15</sv_count>
      <rho>-6.6666666666666666e-002</rho>
      <alpha>
        9.3333333730697632e-001 9.3333333730697632e-001
        9.3333333730697632e-001 9.3333333730697632e-001
        9.3333333730697632e-001 9.3333333730697632e-001
        9.3333333730697632e-001 9.3333327770233154e-001
        -1.0666666626930237e+000 -1.0666666626930237e+000
        -1.0666666626930237e+000 -1.0666666626930237e+000
        -1.0666666626930237e+000 -1.0666666626930237e+000
        -1.0666666626930237e+000</alpha>
      <index>
        5 6 7 8 9 10 11 12 47 48 49 50 51 52 53</index></_>
    <_>
      <sv_count>11</sv_count>
      <rho>-4.5454545454545453e-001</rho>
      <alpha>
        5.4545456171035767e-001 5.4545456171035767e-001
        5.4545456171035767e-001 5.4545456171035767e-001
        5.4545456171035767e-001 5.4545456171035767e-001
        5.4545456171035767e-001 5.4545450210571289e-001
        -1.4545454978942871e+000 -1.4545454978942871e+000
        -1.4545454382896423e+000</alpha>
      <index>
        5 6 7 8 9 10 11 12 54 55 56</index></_>
    <_>
      <sv_count>22</sv_count>
      <rho>1.8181818181818182e-001</rho>
      <alpha>
        1.1818181872367859e+000 1.1818181872367859e+000
        1.1818181872367859e+000 1.1818181872367859e+000
        1.1818181872367859e+000 1.1818181872367859e+000
        1.1818181872367859e+000 1.1818181872367859e+000
        1.1818181872367859e+000 -8.1818181276321411e-001
        -8.1818181276321411e-001 -8.1818181276321411e-001
        -8.1818181276321411e-001 -8.1818181276321411e-001
        -8.1818181276321411e-001 -8.1818181276321411e-001
        -8.1818181276321411e-001 -8.1818181276321411e-001
        -8.1818187236785889e-001 -8.1818187236785889e-001
        -8.1818181276321411e-001 -8.1818181276321411e-001</alpha>
      <index>
        13 14 15 16 17 18 19 20 21 22 23 24 25 26 27 28 29 30 31 32 33
        34</index></_>
    <_>
      <sv_count>21</sv_count>
      <rho>1.4285714285714285e-001</rho>
      <alpha>
        1.1428571343421936e+000 1.1428571343421936e+000
        1.1428571343421936e+000 1.1428571343421936e+000
        1.1428571343421936e+000 1.1428571343421936e+000
        1.1428571343421936e+000 1.1428571343421936e+000
        1.1428571343421936e+000 -8.5714286565780640e-001
        -8.5714286565780640e-001 -8.5714286565780640e-001
        -8.5714286565780640e-001 -8.5714286565780640e-001
        -8.5714286565780640e-001 -8.5714286565780640e-001
        -8.5714286565780640e-001 -8.5714286565780640e-001
        -8.5714280605316162e-001 -8.5714280605316162e-001
        -8.5714280605316162e-001</alpha>
      <index>
        13 14 15 16 17 18 19 20 21 35 36 37 38 39 40 41 42 43 44 45 46</index></_>
    <_>
      <sv_count>16</sv_count>
      <rho>-1.2500000000000000e-001</rho>
      <alpha>
        8.7500000000000000e-001 8.7500000000000000e-001
        8.7500000000000000e-001 8.7500000000000000e-001
        8.7500000000000000e-001 8.7500000000000000e-001
        8.7500000000000000e-001 8.7500000000000000e-001
        8.7500000000000000e-001 -1.1250000000000000e+000
        -1.1250000000000000e+000 -1.1250000000000000e+000
        -1.1250000000000000e+000 -1.1250000000000000e+000
        -1.1250000000000000e+000 -1.1250000000000000e+000</alpha>
      <index>
        13 14 15 16 17 18 19 20 21 47 48 49 50 51 52 53</index></_>
    <_>
      <sv_count>12</sv_count>
      <rho>-5.0000000000000000e-001</rho>
      <alpha>
        5.0000000000000000e-001 5.0000000000000000e-001
        5.0000000000000000e-001 5.0000000000000000e-001
        5.0000000000000000e-001 5.0000000000000000e-001
        5.0000000000000000e-001 5.0000000000000000e-001
        5.0000000000000000e-001 -1.5000000000000000e+000
        -1.5000000000000000e+000 -1.5000000000000000e+000</alpha>
      <index>
        13 14 15 16 17 18 19 20 21 54 55 56</index></_>
    <_>
      <sv_count>25</sv_count>
      <rho>-4.0000000000000001e-002</rho>
      <alpha>
        9.5999997854232788e-001 9.5999997854232788e-001
        9.5999997854232788e-001 9.5999997854232788e-001
        9.5999997854232788e-001 9.5999997854232788e-001
        9.5999997854232788e-001 9.5999997854232788e-001
        9.5999997854232788e-001 9.5999997854232788e-001
        9.5999997854232788e-001 9.5999997854232788e-001
        9.5999997854232788e-001 -1.0400000214576721e+000
        -1.0400000214576721e+000 -1.0399999618530273e+000
        -1.0399999618530273e+000 -1.0399999618530273e+000
        -1.0399999618530273e+000 -1.0399999618530273e+000
        -1.0399999618530273e+000 -1.0399999618530273e+000
        -1.0399999618530273e+000 -1.0400000214576721e+000
        -1.0399999618530273e+000</alpha>
      <index>
        22 23 24 25 26 27 28 29 30 31 32 33 34 35 36 37 38 39 40 41 42
        43 44 45 46</index></_>
    <_>
      <sv_count>20</sv_count>
      <rho>-2.9999999999999999e-001</rho>
      <alpha>
        6.9999998807907104e-001 6.9999998807907104e-001
        6.9999998807907104e-001 6.9999998807907104e-001
        6.9999998807907104e-001 6.9999998807907104e-001
        6.9999998807907104e-001 6.9999998807907104e-001
        6.9999998807907104e-001 6.9999998807907104e-001
        6.9999998807907104e-001 6.9999998807907104e-001
        6.9999998807907104e-001 -1.3000000119209290e+000
        -1.3000000119209290e+000 -1.3000000119209290e+000
        -1.2999999523162842e+000 -1.2999999523162842e+000
        -1.2999999523162842e+000 -1.2999999523162842e+000</alpha>
      <index>
        22 23 24 25 26 27 28 29 30 31 32 33 34 47 48 49 50 51 52 53</index></_>
    <_>
      <sv_count>16</sv_count>
      <rho>-6.2500000000000000e-001</rho>
      <alpha>
        3.7500000000000000e-001 3.7500000000000000e-001
        3.7500000000000000e-001 3.7500000000000000e-001
        3.7500000000000000e-001 3.7500000000000000e-001
        3.7500000000000000e-001 3.7500000000000000e-001
        3.7500000000000000e-001 3.7500000000000000e-001
        3.7500000000000000e-001 3.7500000000000000e-001
        3.7500000000000000e-001 -1.6250000000000000e+000
        -1.6250000000000000e+000 -1.6250000000000000e+000</alpha>
      <index>
        22 23 24 25 26 27 28 29 30 31 32 33 34 54 55 56</index></_>
    <_>
      <sv_count>19</sv_count>
      <rho>-2.6315789473684209e-001</rho>
      <alpha>
        7.3684209585189819e-001 7.3684209585189819e-001
        7.3684209585189819e-001 7.3684209585189819e-001
        7.3684209585189819e-001 7.3684209585189819e-001
        7.3684209585189819e-001 7.3684209585189819e-001
        7.3684209585189819e-001 7.3684209585189819e-001
        7.3684209585189819e-001 7.3684209585189819e-001
        -1.2631579041481018e+000 -1.2631579041481018e+000
        -1.2631579041481018e+000 -1.2631578445434570e+000
        -1.2631578445434570e+000 -1.2631579041481018e+000
        -1.2631578445434570e+000</alpha>
      <index>
        35 36 37 38 39 40 41 42 43 44 45 46 47 48 49 50 51 52 53</index></_>
    <_>
      <sv_count>15</sv_count>
      <rho>-5.9999999999999998e-001</rho>
      <alpha>
        4.0000003576278687e-001 4.0000003576278687e-001
